2382 100
, -0.56018734 0.18500763 0.3769202 -0.44515496 0.42304936 -0.077740796 -0.01615798 -0.2289663 -0.50971633 -1.0207262 -0.45286942 1.0609546 -0.17216422 -0.22362308 -0.018632637 -0.64496773 1.4042165 0.7484967 0.20165147 -0.26803356 -0.42067683 0.0951191 0.3790719 0.7986275 -0.2663504 -0.719754 0.52980524 -0.08444184 0.3564526 -0.27220923 -0.25432494 0.2275262 -0.41324553 -0.5519953 -0.20513383 -0.053244058 0.80077285 -0.59611034 -1.2641518 0.05277933 -0.28758025 -0.013250723 0.40122464 -0.24136738 -0.76672316 0.024818884 -0.4319912 0.04533097 -1.073897 -0.007537057 -0.47355416 0.12943676 0.36605588 0.21781479 0.048395082 0.045242738 0.15276147 -0.18435673 -0.18817723 0.3406011 -0.15530613 -0.3631615 -0.4903786 -0.009459143 0.8030243 -0.17465338 0.6141089 -0.35670593 0.08064827 -0.1583672 -0.03591297 -1.456603 -0.35247588 -0.03187455 -0.118623406 -0.057800863 -0.42981657 0.06857754 -0.4030414 -0.32159135 0.16257164 0.35078463 0.5367664 -0.51942754 0.80864096 0.086884774 0.00032824487 0.09005253 -0.19219118 -0.43295282 0.029600052 0.13216014 -0.88029796 0.14699493 -0.54763496 -0.21091427 -0.28922278 0.3349812 0.49785268 -0.44121915
的 -0.59322137 -0.16379446 0.08526646 -0.2869156 0.29836705 -0.21760252 0.30091947 0.16417614 -0.37674114 -0.6628944 -0.07292155 0.22566417 -0.13644052 -0.48000303 -0.25910348 0.16190563 0.24391428 0.50051916 0.35620853 -0.27204445 -0.4149395 0.0055868076 0.6510073 0.5475269 -0.24524425 -0.1373131 0.3786655 0.07035803 0.078601085 -0.30179083 -0.3319279 -0.10042962 -0.305606 -0.081564955 -0.5106357 -0.41174003 0.31728348 -0.47931 -0.37870842 0.052829113 -0.62207115 -0.29242808 0.18810916 -0.7318139 -0.37063584 -0.21990328 -0.34633932 -0.42024684 -0.38982093 0.29974654 -0.419468 -0.061662525 0.057972476 -0.24504931 -0.35098535 -0.482477 -0.4615615 -0.20440634 -0.26580665 0.39942348 -0.23286325 0.28093523 -0.22923423 -0.121350944 0.57122976 -0.03064306 0.42038184 -0.6056988 0.19106087 -0.3220405 -0.27853397 -0.2098124 -0.36629254 0.37526923 -0.09793065 0.24914062 -0.50313944 0.29417482 -0.20805053 -0.23185106 -0.06541499 0.10631465 0.3433167 -0.3276205 -0.12135862 -0.54032165 -0.0013542417 0.26830187 0.3970709 -0.64452606 -0.74068785 0.6914926 -1.1161827 0.31095275 -0.27521354 -0.17285064 -0.29124913 0.6378704 0.41776192 -0.5450827
很 -1.799236 0.16238591 0.6154971 -0.88277525 -0.11384026 0.36509883 0.035091717 0.021585695 0.2935395 -1.2944394 -0.05165885 0.85695964 0.13246146 -0.8239563 -0.3868185 0.45731407 1.5017011 0.68014187 0.2172892 -0.425256 -0.7494755 0.028398251 0.13851874 1.366407 -0.36025056 0.033961315 1.3858087 0.1650421 0.42984146 -0.8164114 -0.08875219 0.8106529 -0.04903028 -0.0347238 -0.19159883 -0.5110169 0.7039748 -0.14522316 -1.3580048 0.11379598 -0.9977152 -0.41395423 0.53922045 -0.27043042 -0.44539684 -0.1393581 -0.54568595 -0.21261312 -0.9858919 0.5456099 -1.2330343 0.22902952 -0.27993658 0.079827935 -0.45628825 -1.0631584 -0.33782092 0.0014276655 -0.33159712 0.12925182 -0.45351294 -0.02129422 -0.8818361 -0.16527997 0.65717226 -0.44524825 0.11551207 -1.0791473 0.18239598 -0.32141066 -0.3176452 -1.2132386 -0.31758654 0.044090193 0.23215587 0.16967857 -1.4163034 0.77353 -0.597446 -0.0741828 0.14717948 -0.12510058 0.88608587 -0.12464594 0.31163833 -0.045427725 0.62769544 0.16004975 -0.5363777 -0.72789323 -0.13627958 0.40409443 -0.054385927 0.2006698 -0.2277759 0.19955443 0.5838767 0.058031514 -0.50030404 -0.42940974
好 -1.555395 0.3516145 0.3205846 -1.7454255 0.10656778 -0.13300483 -0.96223277 0.68144804 -0.59906423 -1.262717 -0.20516412 0.65328 -0.37403452 -1.0563741 0.27498186 -0.7724218 0.988907 0.18679887 0.3215761 -0.5614016 -0.3021158 0.18531968 0.9526858 1.3975364 -0.20748404 0.013674896 0.90126574 -0.05355721 -0.07736501 -0.42019528 -0.42177048 0.18864426 0.16813198 -0.26217577 -0.21007991 -0.23815194 0.39097366 -0.25740284 -1.2138636 0.43003154 -0.744541 -0.541243 0.60017943 -0.0015707989 -0.2429907 0.035915002 -0.65281093 -0.41770622 -0.3421171 0.27833042 -0.42533 0.15429923 -0.0063066925 -0.022551425 -0.4588738 -0.40445703 0.18079376 -0.48153976 -0.19854821 0.38576066 0.038726673 0.0059836116 -0.3599278 0.26172575 0.43173596 -0.42908537 0.8534893 -0.9378833 0.24012572 -0.45012254 -0.4405717 -0.780333 0.017011387 0.26669988 -0.37612835 0.44723186 -0.84736735 -0.031527173 -0.13393119 -0.32216832 0.07573403 -0.022764254 0.50201774 -0.25509828 0.23031296 -0.18685362 0.20213701 -0.22970581 -0.60359 0.041399963 0.06379072 0.11347808 0.026895592 0.027116388 -0.24532272 0.0695696 0.26246682 -0.84231585 -0.42383465 -0.2739268
了 -0.2925159 0.056964707 0.20318413 -0.7449681 -0.43697736 0.07736131 -0.46885386 0.095794775 0.03177456 0.18110928 0.066024624 1.0362538 -0.4373002 -0.028392121 -0.31320167 -0.3791129 0.67841244 0.96771365 -0.27641436 0.0532978 -0.39824727 0.5171326 0.08976026 0.53741956 -0.2328721 0.14392225 0.7360647 -0.1132827 0.33459732 0.12165219 -0.41431946 0.10324126 0.518426 0.20166132 0.02439188 0.47582412 0.21146463 0.27659968 -0.5874412 -0.30401254 0.29600233 0.05858992 1.093563 0.28191152 0.15884534 0.4305445 -0.4487688 0.61187917 -0.52100617 -0.25476342 0.05995964 0.07109289 -0.7396018 0.30698344 -0.028723245 -0.18329759 -0.07783317 0.13643992 -0.21447396 0.057918828 0.40112698 -0.7173607 -0.05470858 -0.3741036 0.027373735 -0.22745723 -0.2963031 0.45273542 -0.5519163 0.30024964 -0.04536174 -0.3655055 -0.6389109 0.8215341 -0.35978597 -0.10133249 0.0024046383 -0.1499379 -0.21798402 -0.20982349 -0.3739265 0.50186116 0.23172507 -0.39667508 0.63662887 -0.05681468 -0.011497225 -0.22958449 -0.3293589 -1.402629 -0.18733388 0.869504 -0.33327025 0.39134157 -0.7566482 -0.20857356 -0.049800113 0.39780608 0.80848557 -0.13839222
也 -1.1162318 0.5822207 0.26095876 -0.8742316 0.24133709 0.2020911 -0.46733487 -0.006507938 -0.48290524 -0.56966877 -0.61737484 0.39721972 -0.5547747 -0.30785662 0.2025233 -0.31967238 1.2911313 0.5948337 -0.004171782 0.105410814 0.2257321 0.3202726 0.22826366 0.44572777 -0.5345803 0.24532454 0.95937586 0.12661524 0.2882787 -0.61405927 -0.22428378 0.6018058 -0.18721136 -0.2963954 -0.3923925 -0.19984014 0.7769879 -0.3472499 -1.3827353 0.061835863 0.017323194 -0.35022184 0.6778143 0.27715462 -0.31442446 0.13369656 -0.09157369 0.16100165 -0.77373254 -0.17557237 -0.6266593 0.16837901 0.44953758 0.28734738 0.050940823 -0.008397689 0.04733769 -0.15529847 -0.04397834 0.28146324 -0.011750726 -0.1563013 -0.39495367 0.03879379 0.38711843 -0.60181314 0.064030215 -0.4615233 0.059263017 0.019359978 0.25675076 -1.238654 -0.10333477 -0.33699867 -0.020289289 0.15999922 -0.33663473 -0.33356324 -0.14697315 -0.2044611 0.43969834 0.22856516 0.388369 -0.3009083 0.5320826 0.17618018 0.62537247 -0.5353346 -0.13508286 -0.6844517 0.32601818 0.1529854 -0.23243658 0.23100577 -0.77773625 -0.045565024 -0.30979314 -0.037602544 -0.27235538 -0.34120175
. -0.39984506 0.11622189 0.2683234 -0.24933612 0.11940085 -0.103329815 -0.08659639 0.083032705 -0.3100069 -0.4659926 -0.2517813 0.47869748 -0.13667235 0.02871466 0.17621262 -0.35469827 0.52141935 0.34853712 0.20434944 -0.3303583 -0.27607536 0.025100015 0.26451027 0.5345024 -0.18714929 -0.1352523 0.25684384 0.048710663 0.10823839 -0.1923462 -0.2853416 0.24661875 -0.2895863 -0.067722104 -0.020935763 -0.060293302 0.382244 -0.3363973 -0.65102357 0.120997295 -0.3126174 0.0390664 0.27494606 -0.22028607 -0.66227174 -0.019168466 -0.36120734 0.105575114 -0.4714792 0.120256335 -0.4227896 0.057610646 0.16535531 0.16654803 -0.0021606705 0.015275477 -0.09780961 -0.075416 -0.15086165 0.05392141 -0.21550633 -0.18056451 -0.4125766 -0.18001188 0.44256434 0.09303133 0.28151304 -0.3543908 0.005331438 -0.080188885 -0.15681857 -0.8586727 -0.34507853 0.14738664 -0.023051422 -0.31308326 -0.032932818 0.21406661 -0.2280462 -0.32670665 0.032487065 -0.06465609 0.22185054 -0.5749476 0.36637786 -0.24429655 0.0229802 0.21628891 0.19327256 -0.19252853 -0.1755665 0.18383314 -0.7246587 0.041415207 -0.18654078 -0.03561511 -0.39456034 0.33885235 0.35948786 -0.25040692
穿 -1.456506 0.6479211 0.23675567 -1.0636582 0.12168021 0.29269028 0.61900634 0.10957294 0.078486554 0.021247141 0.24639331 0.29198173 -0.19744304 -0.49753833 0.44163638 0.33375156 1.0814545 0.6929395 0.82183075 0.28218052 -0.46511453 0.3404136 -0.47411692 -0.5787795 -1.287634 0.74259746 1.2081407 -0.061349683 1.2559642 -1.244963 -0.83580047 0.972859 0.10068983 0.28423047 -0.49148 -0.3584183 0.21918781 -0.11940327 -0.7675932 -1.2070128 -0.15563515 0.2719583 0.8461544 0.05945478 0.52187353 -0.018148644 -0.1715753 -0.94083923 -1.2824311 1.0408666 -1.0985081 0.5195841 -0.33216548 -0.0906462 -0.8253959 -0.5248768 -0.38754204 -0.9325659 -0.037168723 -0.34904316 -0.02750869 0.05506337 -0.5157979 0.22795172 0.53204584 -0.6277288 -1.2101983 -0.8667253 -0.69843274 -0.03100991 0.7931989 -0.6727436 0.18047658 0.31046683 0.28422108 0.3799765 -0.6016596 0.38816336 -0.7114022 -0.46231437 -0.119583204 0.02221016 0.41610125 0.09393654 0.7383536 0.9205492 -0.14046755 0.86364573 0.51672834 -1.282101 -0.85987407 0.44857767 -0.39403927 0.34906197 -1.082234 0.107142635 -0.71295995 0.79343355 0.00675171 -0.11049694
质量 -1.6743555 0.2146259 0.46951365 -1.010903 0.038898688 0.13106635 -0.56754833 0.5549213 0.30995148 -1.0363823 -0.28459984 1.0683011 -0.23304643 -0.8455673 0.13479352 -0.22866902 1.1688391 0.30565786 -0.21135098 -0.1745472 -0.045053028 -0.060096756 0.5487572 1.304962 0.13389124 0.3413988 1.3660655 0.0644848 0.08813387 -0.59472966 -0.06239738 0.07832264 0.26901773 -0.2908026 0.055559713 -0.23254411 0.38861278 -0.3269706 -1.1215595 0.34657538 -0.54231924 -0.51122963 0.8026838 0.08715668 0.006361616 0.26307723 -0.56773883 -0.005974115 -0.50491714 0.075021386 -0.48433012 -0.11234332 -0.15190403 0.04185621 -0.15860678 -0.74840474 -0.14387232 -0.04276118 -0.20197262 0.4049385 -0.1681466 -0.4806418 -0.4511219 -0.031614516 0.447747 -0.49607742 0.6293996 -0.6882807 0.09163362 -0.18314274 -0.0029192313 -1.3368297 -0.34815395 0.16557375 -0.640678 0.5218547 -0.97428936 0.35951367 -0.00029845414 -0.4519982 -0.00082521624 -0.07599753 0.5363096 0.16621733 0.12547542 -0.24214233 0.7990176 -0.2870338 -0.57414675 -0.3071895 -0.23786122 0.60003585 -0.25925383 -0.055371046 -0.37935966 -0.15879682 0.44777086 -0.47744194 -0.46365452 -0.38988313
不错 -1.8034815 0.1862095 0.43471646 -1.5097945 -0.117524266 0.14071696 -0.43694228 0.6698218 0.08212257 -0.6206865 -0.6587133 1.1447618 0.14857191 -0.5304624 0.4620593 -0.79981935 1.2611727 0.28974253 -0.15933584 -0.0520691 0.61601347 -0.08563142 0.3497336 1.1073779 -0.028933708 0.5342937 1.3475959 0.03732553 0.22948217 -0.44039148 -0.46584436 0.0016855372 -0.2456731 -0.07575864 0.17869885 -0.54489905 0.7035279 -0.19043599 -0.97816104 0.90459096 -0.5377607 -0.4508969 0.5934297 0.023082595 -0.14171861 0.019916214 -0.8265241 0.05501001 -0.5740733 0.29023668 -0.51794136 -0.47470388 -0.059192646 -0.17761989 -0.38938227 -0.106532104 -0.44541433 -0.074140884 -0.012655009 0.16841605 -0.021699602 -0.44303107 -0.19421002 -0.33150747 0.20929039 -0.5962329 0.25200072 -0.471364 0.21758293 -0.47343242 0.18656436 -1.166223 -0.098024115 -0.3913051 -0.842069 0.15408228 -0.7747532 0.373018 -0.0057595726 -0.5638377 0.79129195 -0.17303228 -0.017998546 -0.06608823 -0.33572114 -0.33203748 0.9056142 -0.09636413 -0.5772929 0.34052166 -0.048432205 0.59652185 0.16186248 -0.28879026 -0.012907032 0.051639743 0.011874927 -0.29799017 -0.94162023 -0.7168624
! -0.16850246 -0.37395644 0.34726924 -1.1277077 -0.98849595 0.8067568 0.18737534 0.56735146 0.03491603 -0.8297465 -0.0825298 0.8706275 0.93513113 -0.13267337 0.096666634 -0.92617434 0.40346065 -0.6906662 -0.14270835 -1.2621579 -0.7156817 -1.0375262 -0.007998612 1.1375326 0.52213985 -0.28185692 0.6707565 -0.3668848 -0.93765056 -0.80331475 -0.73486066 0.48528758 -0.05930423 -1.0726798 0.3160604 -0.15983911 -0.70685935 0.33871996 0.28473836 0.73506176 -0.9024754 -0.48021477 1.1127189 0.42076308 -0.43645614 0.9529573 -1.0651768 0.20852302 0.84179705 0.22992851 0.03413617 -0.33930257 -1.1938852 -0.44399455 -0.02144479 -0.21685712 1.0529195 0.66584885 -0.50125515 -0.41799676 0.02979595 0.3166698 -0.0073122433 0.49667847 -0.34928554 -0.21943602 -0.28775486 -0.5337372 0.4570891 -1.6266778 -0.50161535 -0.14566813 -0.16965127 0.82530916 0.51276463 -0.6300898 -0.62039727 1.7306548 -0.09927257 0.4613282 -0.45830706 0.62148273 -1.0882045 -1.2161458 -0.06860146 -0.8663531 1.1923885 0.5516186 0.29604733 0.371786 -0.84616804 0.6498361 1.2990645 -0.39749464 1.2762973 0.2973741 1.1532612 -0.57171667 0.16254805 -0.16589724
喜欢 -1.4399983 0.1724862 0.35329586 -0.43562755 -0.20286211 -0.26274386 -0.6279801 0.77061623 0.33809265 -0.89010537 -0.31839994 0.1402269 -0.59574175 -0.47594348 0.55932474 -0.45332977 0.44954807 0.05627311 0.048399605 -0.44045842 -0.057519693 -0.5842378 0.002648843 0.545383 -0.33450353 0.94188875 0.7357331 0.08285742 -0.43037212 -1.3204976 -1.2331613 0.22616142 0.22738673 -0.63105476 -0.020976871 -0.31916538 -0.28690842 -0.7720459 -0.47237846 -0.20917413 -0.66138124 -0.62126696 0.26652506 -0.052410554 -0.16597646 -0.09451419 0.060873553 -0.7678594 0.06640133 0.8312658 -0.4778082 0.5533687 -0.3355666 0.17521824 -0.5094355 -0.8686548 -0.38905004 -0.42456487 -0.52172166 -0.087396994 -0.28289703 0.633636 -0.73774755 -0.30600417 -0.11479347 0.34508234 0.0044971784 -1.1235182 0.11727836 -0.693639 -0.36076728 -0.7622289 0.1287299 0.84262466 -0.3730179 0.43806922 -0.82260066 0.8417126 0.48656246 -0.47558096 -0.28532165 -0.5008025 0.25962198 -0.30554688 -0.024272008 -0.7678223 0.5050074 0.10543519 -0.28510234 -0.11821355 -0.50524896 -0.3885381 -0.43284974 0.039250817 -0.034583636 0.18842483 0.28850636 -0.4251493 0.31959477 -0.518862
衣服 -0.73915225 0.2846367 -0.03183302 -0.78045195 -0.05740066 -0.088135555 0.0016141048 0.09757718 0.08947588 -0.6186435 -0.32279733 0.69082475 -0.37194708 -0.58690274 0.14453173 -0.28736082 0.67430174 0.60647416 0.10655194 -0.017558683 -0.188281 -0.042613108 0.44316953 0.34172 -0.34669736 0.2376777 0.7426066 -0.06276802 0.15245354 -0.33906177 -0.31107497 0.12879828 0.11986903 -0.23240313 -0.35463116 -0.17862579 0.2707468 -0.40026373 -0.5398179 -0.063139774 -0.36584657 -0.19652487 0.5234717 -0.23698337 0.00039254257 -0.17144363 -0.38913974 -0.3186846 -0.37900722 0.094671994 -0.19463612 -0.13823621 -0.029810451 -0.06083404 -0.33000946 -0.40410808 -0.22220762 -0.1060933 -0.16458558 0.2760533 -0.33324763 0.05666852 -0.10793181 -0.0035695117 0.31770432 -0.30555937 0.3107451 -0.3176551 -0.09319094 -0.021041416 0.099705994 -0.5834307 -0.33840233 0.44370452 -0.38656813 0.29082093 -0.32700965 0.083362386 0.07124985 -0.36329332 -0.04142233 0.30262703 0.19890718 -0.17363808 0.12367693 -0.2419767 0.12377136 -0.013179636 -0.1257221 -0.310682 -0.45070654 0.41152257 -0.25033927 0.23277736 -0.19907339 -0.28769526 -0.29424694 0.21698022 0.21060723 -0.28744763
舒服 -2.0116544 0.8838186 0.48389944 -2.1358507 0.34563056 -0.08931161 -0.6206979 0.60547596 -0.5672425 -0.75945604 -0.108716734 1.061326 -0.5036467 -0.42554438 0.50461245 -0.40604612 1.2518291 0.83434075 0.35613304 -0.34238765 0.10205986 0.25620562 0.005370269 0.4431667 -0.8654527 0.035166886 1.2317394 -0.25167897 0.5221488 -1.4105332 -0.3865072 1.2830801 -0.14708424 0.03686969 -0.42873716 -0.5274912 0.71488655 -0.21562535 -1.8362995 -0.21156831 -0.24279983 0.20678808 0.875728 0.12847441 -0.0072149015 0.32709643 -0.64263725 -0.24490432 -0.6296295 0.5874745 -1.2380551 0.13847283 -0.032334324 -0.21564828 -0.8811094 -0.36194178 -0.0032439567 -0.6769581 -0.21528803 -0.15634494 0.02588723 0.25407925 -0.57999104 0.12835614 0.6634876 -1.2263609 -0.5120198 -1.3086975 -0.32618833 -0.5912809 -0.07806813 -1.05721 0.054529447 -0.03196646 0.09072916 0.15160573 -0.6733498 -0.038371343 -0.9291984 -0.41449323 0.34051707 0.096144274 0.08738971 -0.395759 0.8602682 0.28379282 0.7575134 0.13957843 -0.39336976 -0.83497095 0.36446542 -0.119667366 0.063477404 0.27741608 -0.71654755 0.49202418 -0.39368293 -0.8552252 -1.5585028 0.14968444
买 -0.80719423 0.16163369 0.12421064 -0.70478857 0.014081103 -0.14540352 -0.007012407 0.8408471 0.7374646 0.1537318 0.30187088 0.8157323 -0.3519556 -0.26565266 0.4375372 -0.69188243 -0.07457603 0.4519943 0.5157857 -0.4422908 -1.4919723 -0.020075027 0.7789198 0.09589693 -0.20532866 0.90347195 0.8078888 0.5156214 0.27770904 0.032592162 -0.45411584 -0.5255635 0.396815 0.17420259 -0.3427769 -0.35550603 -0.4533192 -0.4532114 0.19588922 -0.63020265 -0.84554833 -0.033715673 0.8567946 -0.21978632 -0.004575983 0.07808795 -0.8830014 -0.40792325 -0.037438836 -0.16950968 0.26922423 -0.027473344 -1.0560267 0.23894481 -0.7098535 -0.1650358 -0.26622352 -0.13419172 -0.6586915 -0.19113934 -0.28354672 -0.17613323 -0.066148005 -0.07997047 -0.28165403 0.9009937 0.25003523 -0.0680786 -0.26736182 0.8856178 0.13098 -0.29686913 -0.24437529 1.1711084 -0.6510217 0.08432279 0.0011656414 0.25245968 0.31409237 -0.48427203 -0.44223928 -0.24101987 -0.22532034 -0.14422463 -0.05816851 -1.0616026 -0.69803196 0.007492441 -0.1627896 -0.11893189 -1.6029049 0.7618257 -0.1963492 -0.017825546 0.31789324 -0.91797346 -0.3622676 0.03677734 0.63367105 -0.35641652
非常 -1.5394404 0.1374654 0.4232812 -1.1498021 -0.43565708 0.24392807 -1.1422589 0.43962672 -0.30470136 -1.618018 -0.27058598 0.69832975 -0.4103573 -1.1560469 -0.014803474 0.19980805 1.0560955 -0.011554243 0.35111752 -0.5728202 -0.6978703 -0.35104194 0.5722346 1.8125975 -0.35222912 0.28112915 1.1774588 -0.016649887 -0.19904418 -0.92490524 -0.34288105 0.93131435 0.38678834 -0.31078875 0.03989213 -0.15673631 0.38755688 -0.09651439 -1.2965081 0.3144655 -0.8928335 -0.732656 0.8564431 -0.18338114 -0.65499735 -0.028957453 -0.73169553 -0.12879483 -0.48487493 0.62582123 -1.1005653 0.4536273 0.20244832 0.2807509 -0.48648995 -1.375854 -0.19533867 -0.2582007 -0.121428326 0.38316005 -0.5295502 0.40076318 -0.8935467 -0.11684434 0.39002836 -0.23461957 1.0520264 -1.3932403 0.37705007 -0.4800138 -0.4240574 -1.0509324 -0.3757553 0.279703 -0.0022163535 0.48345137 -0.96973956 0.82444143 -0.16213018 -0.046972994 -0.32689777 -0.057384256 1.1096511 -0.28225008 0.2917866 -0.08075689 0.61613077 -0.08266803 -0.59379816 0.013528371 0.124139026 -0.14083585 -0.07096604 -0.03916341 -0.26844224 0.19701658 0.683862 -0.18974052 -0.35010785 -0.4229931
是 -0.57758397 0.020872097 -0.06668675 -0.45629042 -0.11661154 -0.3955104 -0.04413885 0.3858447 -0.12254895 -0.18902762 0.06538893 0.04234566 -0.36110052 -0.20241193 0.15770216 0.019022118 0.062810995 0.35945737 0.25435558 -0.024088971 -0.2375085 -0.01974896 0.2523185 -0.24702007 -0.46106625 0.39734462 -0.085250504 -0.20326328 -0.17787713 -0.25990206 -0.5533066 -0.21105474 -0.16237591 -0.053131487 -0.41303393 -0.18710488 -0.024899602 -0.27463582 0.14683892 -0.13660121 -0.86580473 -0.35185102 0.04073298 -0.61898583 0.12924418 -0.29136124 -0.023000449 -0.74248236 -0.07591325 0.33962667 -0.14803076 0.011842556 0.18494588 -0.38990316 -0.36130998 -0.42691198 -0.37334445 -0.55789953 -0.3562922 0.20158462 -0.18344748 0.62167513 -0.5054971 -0.4245818 0.53858685 -0.0100933155 -0.05498722 -0.57360107 -0.077631466 -0.19877154 -0.20270616 -0.248801 -0.2248466 1.1293253 -0.39872974 0.120870166 0.040709503 0.26870257 -0.038673438 -0.3767847 -0.37411857 0.0785042 0.08970315 -0.41992465 -0.3592137 -0.57168037 -0.09174733 -0.04522784 0.23597462 -0.29287243 -0.7204145 0.3971798 -0.8831999 0.5782185 0.17646047 0.03531464 -0.2765627 0.49144307 0.5359463 -0.10712849
我 -0.02861864 -0.17083511 -0.09069253 -0.1312745 -0.58013356 -0.69890124 -0.51141053 0.63553566 -0.31544265 -0.14280954 0.41265056 -0.8281612 -0.56533056 -0.08521201 0.30228138 -0.091012 -0.5028857 -0.062614 0.17685673 -0.26054847 -0.43076453 0.5694121 0.667625 0.08187435 -0.40554574 0.849757 -0.36695772 0.010999997 -0.620734 0.04225289 -0.7719134 -0.50295234 0.24003212 0.28786692 -0.24900989 0.3041667 -0.5109259 0.07378802 0.39740753 -0.06772317 -1.0244509 -0.6377189 0.049646918 -0.37764403 -0.21362777 -0.22485474 0.30019116 -0.251136 0.24497151 0.14831474 0.045418326 0.3548256 -0.16840728 0.12274922 0.3737883 -0.5451092 -0.16111915 -0.42924252 -0.3411454 0.08159481 -0.016521046 0.23190644 -0.59392107 -0.39099807 0.3740232 0.8353222 0.22301678 -0.14990453 -0.11382605 0.3231329 -0.6982748 0.16764735 -0.16826677 1.4787127 -0.34496218 0.08855553 0.1568854 -0.036843404 0.5044534 -0.4882994 -0.696499 -0.30018142 -0.007428641 -0.3547587 -0.23929109 -0.8097016 -0.6932657 -0.24870963 0.6823148 -0.67957497 -0.8476862 0.5212165 -1.2768021 0.5546996 -0.0023200733 -0.24011385 -0.25876024 0.6618725 1.9005075 -0.2792497
收到 -0.98100585 -0.28600782 0.6819646 -1.1982086 -1.177277 0.09566249 -1.441014 0.81152 -0.047382202 -1.0507174 -0.11299039 1.4163365 -0.08188867 -0.5524569 0.072692454 -0.91780174 1.1307414 0.38226256 -0.06818803 -0.5982045 -0.32385865 0.50398403 0.6059857 1.7252659 0.07349082 0.49491748 1.3919375 -0.094962575 0.12577559 -0.25042164 -0.48114833 0.6044581 0.5053203 -0.022591734 0.51649654 0.47685346 0.37345743 0.6908779 -1.2936838 0.48855138 -0.36920375 -0.21738298 1.01336 0.4574373 0.06823177 0.3015907 -1.0956861 0.78031045 -0.53535974 0.25553197 -0.6948959 0.14597622 -0.4265602 0.36910677 -0.12046038 -0.9032814 -0.6627276 0.1799926 0.2537638 0.091718875 0.30528158 -1.1733516 -0.39917853 -0.23499586 0.3618517 0.17579038 0.36433414 -0.09194688 -0.2700087 -0.041232232 -0.3044403 -1.0065768 -0.13647072 0.11119446 -0.8934029 0.5576007 -1.282896 0.68426436 0.085754104 0.07986406 -0.23376217 -0.055358294 0.2277023 0.8041454 0.7484994 0.37219435 0.10311255 0.08678477 -1.1015131 -0.73607755 -0.08823411 0.4491198 0.04312964 0.32343984 -0.19062151 0.13823403 0.24981529 -0.10234269 -0.13201901 -0.28288198
还 -1.2035784 0.075750224 0.27788207 -1.0039091 0.362599 0.1541991 0.5740391 0.16842479 0.5405218 0.064696245 -0.5173972 1.1850202 0.108029164 -0.29851723 0.516651 -0.7534256 1.0534545 0.96289736 0.049098745 0.16423203 0.35690135 0.04108923 0.24319306 0.23067988 -0.5390473 0.80257523 1.2907054 0.32918954 0.6559577 -0.24639408 -0.72314787 -0.4516107 -0.32528225 0.2712515 -0.3714164 -0.6094028 0.41649026 -0.6043164 -0.41174537 0.084479675 -0.62671936 -0.39133063 0.8841478 -0.35340822 -0.08150416 -0.006254608 -0.71276027 -0.0316817 -0.71501875 -0.030121623 -0.32414168 -0.6078406 -0.2582821 -0.17671157 -0.5434724 0.3671945 -0.60408187 -0.08108539 -0.18298365 0.015163913 -0.12140627 -0.41255298 0.3268563 -0.562273 0.02975923 -0.25247627 -0.32603815 0.11044808 -0.29338285 0.12911417 0.69099456 -0.8322737 -0.13207433 -0.06567916 -0.8172007 0.18302241 -0.49207056 -0.057296056 0.046663605 -0.71575755 0.6165964 0.007303706 -0.35596737 -0.46168542 -0.41533938 -0.6684835 0.2992119 -0.014532789 -0.26114213 -0.23393713 -0.7845024 0.7940864 0.051144194 -0.08495287 -0.2814439 -0.45054686 -0.7642358 0.48332354 -0.28564438 -0.85389316
不 -0.08944801 -0.23719919 -0.025698036 -0.30959034 0.013945384 -0.01382175 -0.2337487 -0.108775735 -0.4410127 0.99479514 -0.26666513 0.21511365 0.15208794 0.9952473 -0.278633 -0.52986366 1.0457062 0.6558085 -0.65017736 0.7030336 0.7946356 0.44436574 -0.5531136 -0.6988123 -0.53434795 0.5488618 0.03206728 -0.027422983 0.03645444 -0.8747069 -0.27523988 -0.27172273 -0.16685706 -0.03149882 0.2015673 0.1897661 -0.26796374 0.51976466 -0.21046193 -0.55630326 0.028702628 -0.58752257 0.5214984 0.47798154 0.81904864 0.08147536 0.40194115 0.8047613 -0.59097147 0.043238454 -0.3582837 0.0705036 0.5010394 -0.55755454 0.2819977 -0.25880283 0.31022295 -0.8034359 0.06816283 0.048193824 0.9636254 -0.1497581 -1.0537306 -0.65569955 0.50628525 -0.77981156 -1.0304815 0.06555642 -0.73428375 -0.4139449 0.89905626 -1.5528044 0.19389999 0.52254117 -0.72694886 -0.5090849 0.26973623 -0.16117863 -0.34862182 -0.54357964 0.09034486 0.5883155 -0.5265118 -0.004015385 -1.0054467 0.5413335 1.073354 -0.8300616 0.43033552 -1.7875226 0.010047202 0.7479942 -0.6707825 1.0961909 -0.9677287 0.27908617 -0.061521053 0.47178912 0.2452674 -0.3080698
没有 0.26094216 -0.32592493 0.13511905 -1.2574672 -0.5488741 -0.5409982 -0.5615671 0.3378871 -1.9969318 -0.2631795 -1.0574704 0.13919206 0.21864487 0.121161185 -0.68999904 -0.98233056 1.5413276 0.5796777 -1.1471988 0.0077549117 2.1565526 1.1404101 0.85943097 0.94155735 0.021615941 -0.34749216 0.24213706 0.21026723 -0.42329562 -0.6177259 -0.10746893 0.8454646 0.025247257 0.2655243 -0.043644898 -0.12933487 0.6073397 0.8562694 -1.1242892 1.4442538 0.2797325 -0.31776017 0.9534113 -0.2227578 -0.012329332 -0.07348617 0.025573296 1.780439 -0.43512776 -0.33941665 -1.1932582 -0.6673962 0.83784974 -0.93687975 0.9650229 -1.0251299 -0.38453785 0.47320697 0.3841705 0.10862964 -0.21819445 0.3630154 -0.97906095 -0.36025625 0.88906366 -1.400499 -0.00415511 0.38952374 -0.39831638 -1.2326535 -0.08986776 -0.93235916 0.0840839 0.13396583 -0.997928 -0.63450086 0.17863855 0.091075964 0.32144845 0.10752229 0.61768293 0.8023581 -0.75464934 0.27395144 -0.95148027 0.45677733 1.3637816 -0.42095554 0.3594456 -1.780285 1.2219208 1.2710327 -0.6596707 0.33676982 -0.5390828 0.8857021 -0.350387 0.21399106 0.09501052 -0.29362288
面料 -2.2062833 0.4711585 0.6505149 -1.721665 0.0045246324 0.20067051 -0.64397377 0.45067185 -0.00791869 -1.028009 -0.25947583 1.4451156 0.07432316 -0.46240765 -0.2729607 -0.56878036 1.6745929 0.89019364 -0.03371406 -0.3617932 0.10511266 0.112804875 0.16445935 1.1698586 -0.13409518 -0.27791065 1.7846305 0.09075389 0.36951655 -1.1957148 -0.0460132 1.1074653 -0.07287195 -0.013354806 0.16446242 -0.7555657 0.8960022 0.14517166 -1.719252 0.2529505 -0.60707694 -0.09189645 0.9638903 0.09881664 -0.17875315 0.15605392 -1.004519 0.32522607 -0.67049044 0.26545975 -1.1016546 -0.04837983 0.08624477 -0.3302337 -0.57717735 -0.71110076 -0.23601152 -0.41792718 -0.16236304 0.09080137 0.03600605 -0.10768574 -0.53149706 -0.29566476 0.7074686 -1.4031204 -0.35011873 -1.2078733 -0.26907894 -0.9582448 0.10856951 -1.6625943 0.0062909843 -0.56030583 -0.3818548 -0.074440755 -1.1017079 0.54603565 -0.93839073 -0.31850347 0.5504365 -0.059025224 0.30719736 0.060280297 0.22007896 0.34390455 1.3445531 0.035898786 -0.51924884 -0.69659686 0.1942411 0.43309465 -0.028573776 0.24589084 -0.5479777 0.33561647 -0.18842655 -0.5634976 -1.734756 -0.21853288
好看 -1.8080823 0.6229187 0.15229373 -1.0632347 0.4572861 -0.29436252 -0.28817296 0.34836408 -0.12741317 -0.3966207 -0.4681724 0.3768201 -0.34506705 -0.27160394 0.4611004 -0.5023711 0.83376837 0.43395323 0.2992332 -0.052526563 -0.02737296 -0.062355123 0.07505015 -0.045753155 -0.7674516 0.5734971 0.9700725 0.22082184 0.19186355 -1.1605589 -0.46003294 0.29967964 -0.14096655 -0.21250318 -0.30496886 -0.57356954 0.37400213 -0.7079695 -0.970844 -0.24089924 -0.19324513 -0.09402726 0.36999625 -0.009055456 0.0868086 -0.0005223612 -0.09837475 -0.57050294 -0.2876005 0.4286908 -0.45988154 0.19797437 0.17845625 -0.018395366 -0.59251356 -0.37983167 -0.12704459 -0.73581266 -0.3373527 0.1287403 -0.015472038 0.43980727 -0.47353125 0.07368759 0.34511566 -0.63584435 -0.16504614 -1.1048913 0.030985877 -0.37546852 0.22714853 -1.0732741 0.25592464 -0.1801658 -0.31587797 0.13898116 -0.2998177 0.039428525 -0.10982696 -0.5667318 0.524968 -0.16676404 0.04618152 -0.090125814 -0.07238943 -0.10915082 0.4907744 -0.26293105 -0.079779625 -0.33544967 -0.09983502 -0.20705362 -0.27360916 0.10302745 -0.4955936 -0.109777614 -0.29622644 -0.46925458 -0.8766599 -0.31777173
穿着 -2.0890775 0.41978902 0.44042358 -1.3699114 0.44752195 0.28427294 -0.10314936 0.03337828 -0.02953681 -0.7050036 -0.54831487 1.0837808 0.09345022 -0.4464796 -0.1829679 -0.5958422 1.480833 0.854904 0.19562519 -0.2522051 -0.08783361 -0.20217268 -0.008628716 0.60847574 -0.5593423 -0.15456446 1.512616 0.25428745 0.37145185 -1.2337384 -0.26672274 0.7574549 -0.29003674 -0.19192277 -0.12391095 -1.0436599 0.86588186 -0.43663684 -1.548635 0.03616766 -0.71112055 -0.17440076 0.8073966 -0.12962334 -0.53703135 -0.055900294 -0.690393 -0.081013925 -0.6865274 0.3608207 -1.017638 0.17400813 0.09355397 -0.14525968 -0.76024556 -0.30685952 -0.09013748 -0.452862 -0.50379044 0.09836709 -0.16272537 0.27366105 -0.4396705 -0.16954918 0.4333819 -1.0273355 -0.45198283 -1.2303189 -0.08131784 -0.9244055 0.35187882 -1.4156201 0.20448412 -0.40880385 -0.11575959 -0.31306878 -0.9093187 0.4114889 -0.86508805 -0.25330207 0.710458 -0.0026421014 0.352472 -0.33238083 0.058389027 0.09338226 0.9826576 0.022949839 -0.43131348 -0.42242417 0.075184904 0.10347855 0.089003235 0.08652757 -0.37985536 0.07806534 -0.09615662 -0.5098795 -1.5136882 -0.18433553
满意 -1.3018394 -0.35425156 0.50910085 -1.5982413 -0.3701067 -0.25167444 -1.8103614 1.3874614 -0.86979866 -0.786261 0.14026058 0.9329317 -0.6300811 -0.76892483 0.13812871 0.0235351 -0.07563997 0.056770936 0.50690126 -0.98329955 -0.18562233 -0.27097493 0.7760951 1.7855371 -0.4488952 0.33057818 0.3996115 -0.70070803 -0.61072624 -0.38965786 -0.53452086 0.48883086 0.37666363 0.3618426 0.19650915 0.2224883 0.1594139 0.08601575 -0.9276498 0.6167942 -0.92498964 -0.42055064 0.84698695 -0.64955634 -0.6106246 0.4427492 -0.9699085 -0.057633646 -0.06868361 0.87800133 -0.98742586 0.40621802 0.22425392 -0.34975803 -0.8404493 -0.76788735 -0.5348494 -0.46105367 -0.039321665 0.39704928 0.19956437 0.11515847 -0.78763574 -0.6122273 0.55277824 0.1965851 0.8026968 -1.211294 0.13464576 -0.71542984 -0.962778 -0.22948554 -0.36296308 1.0477061 -0.32997903 0.39685604 -0.4920165 0.5567128 -0.37550992 0.21152979 -1.0271297 -0.25930575 0.80305547 -0.71352506 0.42525634 -0.48156402 0.1567854 0.44425866 -0.6279685 0.22249329 0.18752487 -0.11501923 -0.43653518 -0.049434282 0.21108699 0.8137487 0.4009342 -0.5177204 -0.8458952 0.07122615
挺 -1.9293109 0.24888621 0.20889567 -1.1933788 0.22355239 -0.21159442 0.42411664 0.23921855 0.25320846 -0.7782214 -0.31839564 0.76359874 0.20860569 -0.747632 -0.0073575084 -0.09173085 1.3324409 0.71633476 0.27184206 0.005358416 -0.14853708 0.17146182 0.17830032 0.64776015 -0.3926493 0.21298197 1.1547844 0.21774875 0.54423875 -0.5304401 -0.21994786 0.050074734 -0.15162995 0.080553986 -0.22348782 -0.93327856 0.63317096 -0.422258 -0.97296023 0.18313189 -1.0326477 -0.30197883 0.3251692 -0.60740906 -0.044277288 -0.43827045 -0.36085036 -0.5972029 -0.77525663 0.48248407 -0.6437721 -0.19238648 -0.00823658 -0.23765172 -0.5216805 -0.64371276 -0.50478864 -0.4382947 -0.34268847 0.29388118 -0.32935986 0.20946892 -0.5792027 -0.17555337 0.68428564 -0.60983604 0.08686858 -0.78666264 0.1004686 -0.23212378 0.14804883 -1.208963 0.047549196 0.012968477 -0.50992465 -0.066916935 -1.032171 0.35819042 -0.4026638 -0.68545204 0.5807923 -0.16019861 0.32158425 0.102559164 -0.37974396 -0.15701751 0.37041607 0.038782913 -0.29262298 -0.27714014 -0.36651042 0.48917598 -0.119295634 0.08765803 -0.17866403 -0.08311031 0.09401222 0.16275626 -0.58083385 -0.429947
都 -0.5415132 -0.0038059445 -0.08226733 0.14582214 0.07612592 -0.35453105 0.024682991 0.20580588 -0.0531306 0.060098425 -0.07925144 -0.30459106 -0.28717512 0.43948138 0.10787514 -0.43043002 0.1437536 0.24139541 0.12751609 0.12998287 -0.0018578164 0.20648392 -0.055973876 -0.33301625 -0.1852909 0.38019174 -0.051422004 0.17665148 -0.0073172906 -0.3222329 -0.54914576 -0.2972607 -0.3395174 -0.058241364 -0.21709996 -0.15869613 -0.07475363 -0.17019713 0.12190623 -0.22474004 -0.470637 -0.35023963 -0.11821165 -0.37190166 -0.07726298 -0.12869643 0.20292614 -0.2975099 -0.01617581 0.096951276 0.19594835 0.20637372 0.24324836 -0.056579396 0.22662018 -0.13069843 -0.19905035 -0.4895413 -0.32214746 0.18095848 0.23713289 0.43368602 -0.41009668 -0.5387224 0.2406029 0.030873364 -0.3677163 -0.21611586 -0.053805485 -0.05768165 0.123406135 -0.57897913 0.0048761307 0.3614213 -0.5115747 -0.1442968 0.15326434 0.14246128 -0.10285444 -0.61207086 0.036061224 -0.21151267 -0.20066674 -0.21317849 -0.44423926 -0.45860592 -0.053874895 -0.3592953 0.6197592 -0.6282625 -0.63464147 0.38062468 -1.3372507 0.5039278 -0.19447562 -0.26109323 -0.4990592 0.71697223 0.74599475 -0.3420016
可以 -1.2363592 0.4455518 0.17903443 -0.95621216 0.15480995 0.050799035 0.5580923 0.103568606 0.50466275 0.47724488 -0.40244308 0.755156 0.21073441 0.10709845 0.7026572 -0.79223263 0.6867335 0.6454727 0.048621833 0.512119 0.030053306 0.1204203 -0.23923737 -0.670435 -0.7742665 0.9119015 1.1620708 0.4985136 0.57723045 -0.34375763 -0.62377816 -0.48283997 -0.33015892 0.42984185 -0.18202713 -0.93411183 0.38006136 -0.33307487 -0.19902639 -0.20982909 -0.69051427 -0.07207841 0.70457757 -0.20741063 0.03238176 -0.11617333 -0.5352673 -0.21137296 -0.3255402 0.06253582 -0.088796124 -0.5632258 -0.29833442 -0.04017302 -0.39999944 0.4654616 -0.54108804 -0.4410767 -0.34735605 -0.2329651 -0.2878811 0.155149 0.22522876 -0.47352678 -0.058793414 -0.3103084 -0.7253854 0.13230953 -0.23869741 0.2776676 0.789915 -0.7901136 0.13236514 -0.12966748 -0.77441865 -0.53618413 0.29880723 -0.121303946 -0.023329714 -0.97208047 0.82437766 -0.2597361 -0.42497218 -0.62078404 -0.31393668 -0.47856686 -0.04172832 -0.29938984 0.05777912 0.037400734 -0.54820675 0.50480944 0.073612355 0.059658024 -0.23934712 -0.5249066 -0.7035501 0.4077309 -0.54531586 -0.32863674
就 0.579457 -0.08459098 -0.06306394 -0.40374032 -0.7358958 0.24266939 -0.38325012 -0.32866436 0.023669647 0.7245527 0.16554072 0.3062363 -0.45090553 0.23094206 0.19648814 -0.6781743 0.18640137 0.71809226 -0.09106148 0.43530312 -0.21178783 0.864667 0.055008788 -0.5138722 -1.0032723 0.7598202 0.08576093 -0.12647626 0.42158186 0.27407104 -0.6122512 -0.16940199 0.45851004 0.424603 -0.18278247 0.88490474 -0.2516491 0.52465403 0.028063597 -0.6942513 -0.2675283 -0.14261669 1.2151824 0.18236901 0.108209126 0.13012865 -0.082437776 0.6806393 -0.5058155 -0.114774525 0.30550924 0.08297635 -0.23877837 0.595909 0.20447129 0.06970083 0.04198271 -0.23629567 -0.047397453 -0.110916205 0.33132344 -0.31316203 -0.06832238 -0.68397975 0.10765715 0.097217165 -0.5810723 0.9697187 -0.98205465 0.70894367 0.43818438 -0.26568344 -0.43655732 1.3860371 -0.5540223 -0.31335446 0.625867 -0.404679 -0.17759512 -0.58534884 -0.66898805 0.38470107 -0.0035150414 -0.6404436 0.38470608 0.07192514 -0.9473825 -0.27163872 0.10460773 -1.2370331 -0.3809247 0.5315131 -0.47323212 0.79996264 -0.83061755 -0.24199367 -0.5548388 1.2626498 1.3963549 0.07930133
上 -1.995374 0.044742953 0.08257111 -1.6453763 0.07265092 -0.09975102 -0.56637293 -0.526994 -0.4790942 -0.54371774 -0.46137017 0.6268254 -0.07476422 -0.27672854 -0.5765323 -1.0505853 0.9432861 1.069634 0.4843838 -0.19775516 -0.48575085 -0.010812912 -0.5377309 0.2299747 -1.0883654 -0.26241308 0.88996166 -0.21391836 0.13479783 -0.60100734 -0.7315068 0.22989313 0.16720627 0.09356647 -0.11477464 -0.26443422 0.27268752 -0.41144446 -1.2052557 -0.5757991 -0.60664207 -0.17601739 0.6236323 -0.67960477 -0.37670228 0.071034044 -0.31668183 -0.28552058 -0.16629663 0.48313585 -0.070772775 0.41111234 -0.0991492 0.25757685 -0.4584303 -0.311211 0.08853153 -0.5937784 -1.0119963 0.6037551 0.62244093 0.62845546 -0.19771868 -0.31962287 0.36863202 -0.89032406 -0.3746482 -0.62173206 -0.3951197 -0.9035347 -0.19006103 -0.557817 0.3024899 0.14397506 -0.22050585 -0.5946253 -0.2495368 -0.15329888 -0.8573162 -0.29175213 0.16458547 0.37141922 0.20716508 -0.48150694 0.16895604 -0.10336919 -0.34222895 -0.2399282 -0.69417274 -1.1351818 0.28813413 -0.54404104 0.15364054 0.7951416 -0.44859114 -0.1286002 0.5580934 -0.1334112 -1.0470519 0.28279385
价格 -1.6174672 0.66793644 0.055463176 -1.2407473 0.5896301 0.41886625 -0.16062897 0.3986926 0.55049694 -0.22190708 -0.973404 1.9178083 -0.75893104 -0.673836 0.1391738 -0.46829548 1.1950368 0.8442289 -0.29247952 0.026383657 -0.352223 -0.3473237 0.8399 0.6309107 -0.13680655 0.6512608 1.198818 0.57593197 0.3971628 -0.51192033 0.2100611 0.24631011 0.49755007 -0.26420763 -0.8172594 -0.7773187 0.20250943 -0.90926886 -0.9909899 -0.085602306 -0.68796533 -0.29627904 1.8147396 -0.59479356 -0.47693086 -0.119634956 -1.0562888 -0.15025929 -0.6970646 -0.673507 -0.2582441 -0.73910004 -0.1476145 -0.0028129013 -0.5935088 -0.066136956 -0.0034226049 0.21404137 -0.58514065 0.20218949 -1.0548847 -0.30436435 -0.28728628 0.30928016 0.3948637 -0.11123116 0.92974055 -0.4604266 -0.5077518 0.9839772 1.0022615 -1.4679958 -0.50498223 0.9848406 -0.91789603 0.38072875 0.0685058 -0.16542128 0.33023354 -0.86684895 -0.15681517 0.6388307 0.30243608 -0.2833789 -0.050672792 -0.954286 0.5178216 -0.88628966 -1.2195853 0.54991335 -0.36052683 0.70707077 0.366566 -0.0954879 0.41202593 -0.87935966 0.0659834 -0.80729926 -0.764189 -0.24223661
好评 -2.089408 0.3072155 0.7210603 -1.0822072 -0.6011429 0.3890486 -1.4932499 1.0195409 0.13006528 0.54692924 0.0862176 0.19442964 -0.07288364 0.747908 0.68782413 -1.6044862 0.54634196 -0.751099 -0.12943903 -0.49487987 0.015536565 0.8593899 -0.113149725 0.8325076 0.6175554 0.8797063 0.571678 0.49929267 -0.07522593 0.07836347 -0.14249799 -0.34829694 -0.20525083 0.5038454 0.6843003 0.010213244 -0.38778615 1.1631198 -0.42167372 1.1023608 -1.3325007 -0.32185128 0.9619293 0.29705235 -0.97616094 0.7049863 -0.40641063 0.73214215 0.44081885 -0.34034625 0.5182787 0.020852203 -0.2733025 0.7127137 0.778874 0.2978864 0.44945484 -0.18687396 -1.0264182 -0.166132 0.7121113 -0.33904973 -1.1135978 -0.7622334 -0.33860868 -0.37490126 -0.49602658 -0.004491027 0.11193488 0.21286128 0.15552002 -1.6132737 0.05398263 0.5753264 -0.9449584 -1.3133837 0.6790036 0.4243 -0.9141607 -1.0450877 -0.13363498 -0.9977492 -0.27423164 -0.48426998 -0.40397003 -0.43874106 0.3678014 -1.5322294 -0.03463387 0.11085897 0.13396262 1.0644896 -0.72466606 -0.22981182 0.4879425 0.27596018 0.7697164 -0.47757414 -0.24445292 0.5648827
起来 -2.345343 0.50247234 0.38324243 -2.079646 0.23714517 0.05817501 -0.4922611 -0.5671427 -0.2106355 -0.7366902 -0.2761849 0.93693244 -0.121211514 -0.3283217 -0.09760368 -1.1969836 1.3342748 1.3982782 0.15747921 0.03753968 0.027260596 0.18568105 -0.5360851 0.07633949 -1.3147712 -0.43292758 1.031315 -0.2862915 0.31893247 -0.9281108 -0.60838383 0.4823266 -0.088879034 0.19549432 -0.1785303 -0.41179535 0.74282914 -0.45619446 -1.5669972 -0.4353749 -0.8125297 0.0060494547 0.699497 -0.6032571 -0.1479778 0.03912143 -0.34980398 -0.3190315 -0.4134126 0.5830473 -0.2213572 0.24567443 0.011231107 0.06842951 -0.5976311 -0.12786722 0.2401916 -0.7295404 -0.8938878 0.3236019 0.467153 0.7474359 -0.14448531 -0.6739417 0.6286754 -1.5364861 -0.9312684 -0.7293549 -0.7286601 -1.0144631 -0.24211966 -0.9213923 0.27302757 0.16023678 -0.31140873 -0.7284743 -0.4839268 -0.3443391 -1.52508 -0.6040811 0.30124927 0.16240562 0.345714 -0.85996705 0.3780774 -0.021549193 -0.0741751 -0.15269451 -1.0318105 -1.0985024 0.60601085 -0.72826004 0.29995993 0.8459692 -0.6237794 0.43868998 0.30825472 -0.4764685 -1.7900778 0.58783495
这个 -0.9637032 0.78539276 -0.17215514 -1.0879811 0.37069044 0.44351777 0.14296325 -0.09406455 0.42546678 0.8112755 -0.52988183 0.73610187 -0.49270728 -0.053076487 1.0844669 -1.010006 0.5114508 0.6226938 0.12987532 0.66034454 -0.29827282 -0.016000846 0.3110729 -1.2292538 -0.9557333 1.1977272 1.0787461 0.37730968 0.69271123 -0.16563664 -0.3384745 -0.5626138 -0.24733822 -0.08665437 -0.62896854 -0.42442745 0.3497378 -0.63308346 -0.22522317 -0.34646356 -0.155366 0.009473023 0.9354344 0.12651505 0.45808902 -0.27624604 -0.5796372 -0.2605786 -0.30635676 -0.42437908 0.57432276 -0.35285655 -0.16029939 0.27267903 -0.5163059 0.55481917 -0.3331149 -0.015668489 -0.6304523 0.026709093 -0.40075466 0.23247564 0.0604845 -0.58229846 -0.53400105 -0.44257542 -0.29784915 0.44455272 -0.16566478 0.9999038 1.1136101 -0.63486993 -0.29155362 0.51566577 -0.8964472 -0.22227643 1.0533589 -0.7856736 0.032637283 -0.6929758 0.3330963 0.43649757 -0.31502566 -0.4087986 -0.41638952 -0.7978979 -0.11123962 -0.776311 -0.039208014 -0.261159 -0.7515192 0.6974773 -0.14730938 0.23471653 -0.22047308 -0.7948848 -0.7951075 0.3621653 -0.2991337 -0.066516355
合适 -2.211337 0.46692216 0.35928065 -1.9643333 0.28140667 -0.19000003 -1.0773324 0.4034339 -0.8751766 -0.49264044 -0.51890486 0.6782536 -0.4214395 -0.29812208 -0.21819858 -0.60428184 0.9050649 0.2824954 0.67819935 -0.4444024 -0.7021841 -0.048421275 -0.1682694 0.5683539 -0.6356246 0.045979712 1.4856071 0.31274182 0.28461844 -1.0103667 -0.36252153 0.6872431 -0.010204336 -0.038797412 -0.09649066 -0.650227 0.7396613 -0.29420903 -1.7910292 -0.13599136 -0.06458664 0.2719269 0.7922819 -0.13717447 -0.40359607 0.47786582 -0.5851629 -0.10479752 -0.39404213 0.43987873 -0.7538892 0.4360551 -0.14278597 0.46124753 -0.61632735 -0.29732057 0.0064939 -0.27506217 -0.5667403 0.35442877 0.25904003 0.16562244 -0.64011616 0.49341583 0.30293024 -0.61007273 0.07650234 -1.189179 0.19315943 -0.2934614 0.061494995 -0.98045325 0.20617728 -0.6108675 0.10455656 -0.18552732 -0.20745735 0.19189887 -0.56908023 -0.20056896 0.6414401 0.21639074 0.15766405 0.2749242 0.6647205 0.27129573 0.25619018 -0.1508094 -0.20972355 -0.5891626 0.3161832 -0.16240917 -0.07693749 -0.032008857 -0.6135897 -0.25302008 0.098100714 -0.24841869 -1.2538024 -0.07283176
柔软 -2.2151456 0.75300664 0.5085205 -1.9330302 0.083748884 0.04548569 -0.8815237 0.4975783 -0.6544355 -1.2003661 -0.5758429 1.3632585 -0.27774674 -0.21464361 -0.22187975 -0.7970075 1.7466651 1.0804765 0.23777393 -0.45377898 0.3822516 0.15502402 0.071303 1.1435753 -0.4081838 -0.3808302 1.6979324 -0.12036805 0.38699397 -1.8351859 -0.1579095 1.8298628 -0.24236026 -0.006816765 -0.09612647 -0.83948004 1.0662267 0.22864212 -2.1195776 0.24462548 -0.17100263 0.1418518 0.8704947 0.1262931 -0.43313926 0.2838023 -1.0991153 0.4914375 -0.5002467 0.47109133 -1.5659928 0.060255907 0.362666 -0.46073115 -0.7519606 -0.8502564 -0.1566448 -0.6675305 -0.12478146 0.1019883 0.044358574 0.51564157 -0.59741986 -0.06923364 0.6911446 -1.8620216 -0.5761103 -1.652831 -0.2110383 -1.4618163 0.0965591 -1.6249727 -0.045340236 -0.86319053 -0.21386153 -0.11673048 -0.82834834 0.59738696 -1.1830485 -0.22293541 0.9079894 0.12481987 -0.10511595 -0.1823251 0.32990748 0.57907104 1.7122643 0.027354391 -0.26235774 -0.9167925 0.6174403 0.17713736 -0.22463636 0.4051833 -0.78627455 0.65897506 -0.63856137 -0.7466506 -1.9857852 -0.17405707
做工 -1.5484854 0.56526804 0.4147867 -1.2120726 -0.10470604 -0.34477174 -1.126038 0.77231246 -1.1711407 -1.3627387 -0.94783264 0.9403064 -0.5283613 -0.46972802 -0.69288296 -0.25984222 1.6716763 0.73220783 -0.3032739 -0.4932905 0.974312 0.5679646 1.0231643 1.623038 0.41809252 -0.45959055 1.6728475 0.059014358 -0.16141176 -1.1959479 0.47437918 1.4477715 -0.046988674 -0.20567237 0.120060235 -0.8201525 1.1051579 0.509671 -2.193236 1.1696596 0.2693308 -0.23842058 0.9375924 -0.07748487 -0.5955921 0.15545651 -0.78865254 1.1337732 -0.31964383 -0.24668251 -1.5514047 -0.20399506 1.1844422 -0.34580272 0.23857543 -1.4595455 -0.6458649 -0.08798022 0.25085598 0.3761048 -0.3166038 -0.028778493 -0.8476225 0.060565256 1.0579133 -1.4303495 0.29911652 -1.1811818 0.26650047 -1.2665714 0.081747234 -1.7658653 -0.2536876 -0.97166514 -0.88811946 -0.009974366 -0.8510625 0.5740717 -0.24130085 -0.07998194 0.6914471 0.28653768 0.38092452 0.6298347 -0.16462931 0.6186013 2.1812932 -0.44987854 0.0126500875 -0.7900581 1.006546 0.74768966 -0.7513789 0.19950688 -0.74265057 0.3016701 -0.53320765 -0.5233993 -1.1235961 -0.12421317
效果 -2.6975982 0.66245914 0.43963453 -1.2881303 0.15225174 -0.26466176 -0.83418614 0.35080135 1.0496101 -1.3070107 0.37408382 1.1974481 0.389883 0.25009474 1.1013258 -0.6066592 0.7453537 -0.5744396 -0.44591627 0.06158923 0.6841351 -0.13468222 0.12500547 1.1212795 -0.5307865 0.48148543 0.9991992 0.42472512 -0.13261087 -1.4974042 0.22720635 0.59443367 0.12751313 -0.39708868 1.0757848 -0.46240798 0.735481 -0.12573808 -1.3820866 0.5328956 -0.87176514 0.09122478 0.18647929 0.43105936 0.49291703 0.4050959 -0.021102114 0.45350862 -0.81883377 1.0141289 -0.6356271 -0.07830746 -0.43042293 0.0437226 -0.7095424 -0.7059395 1.1195943 -0.46464825 0.1924017 0.20986909 0.26019353 -0.31099042 -0.18843116 -0.23476899 0.5502741 -1.6364292 -0.24254891 -1.3839732 -0.10315032 -0.20500198 0.008125857 -1.4909375 -0.22922559 -0.39482403 0.1233416 -0.5222304 -1.0692858 0.39471376 -0.6071876 -1.4551141 0.9743395 -0.6137537 0.21116157 0.07540964 0.14932986 -0.18079199 1.425667 0.31372437 0.36792508 0.08946491 0.03558745 -0.22234352 -0.09802758 -1.0530431 -0.5141765 0.65717304 0.18072407 -0.4072657 -1.6862606 -0.9929091
有 0.064893395 -0.071898885 0.024141759 -0.21849884 0.22600873 -0.22357284 0.37956285 0.21625182 -0.2515297 -0.11647974 0.022581203 0.33873197 0.07209013 0.17074159 -0.019720625 -0.17557347 0.0032668905 0.5964088 0.26229954 -0.35293847 -0.18526855 0.20193355 0.29002687 0.20738861 -0.33547482 0.10660638 0.31133986 0.15549485 0.07793899 -0.44758585 -0.18424693 0.17891376 -0.097363934 0.41524193 -0.24620004 -0.19265862 -0.17378014 -0.1651713 -0.03527372 -0.3770827 -0.2983947 0.010665894 0.4930336 -0.14213519 -0.23524193 0.016319081 -0.28217992 0.3513947 -0.033180278 0.055153612 -0.409105 -0.11969216 -0.033606056 -0.30345672 -0.22744988 -0.07526286 -0.070910126 -0.34945446 0.061981164 -0.21056229 -0.08120849 0.14405616 -0.09329823 -0.15990499 0.2258204 -0.019054463 -0.1742576 -0.25581378 -0.27956283 -0.28610533 0.010160515 -0.36029664 -0.28261077 0.21797605 0.102956116 -0.0139046805 0.09678086 0.1175733 0.052641265 -0.29774535 -0.091793336 -0.06452 -0.40969813 -0.68814075 -0.1531942 -0.25982675 0.121571995 0.36300388 0.73800695 -0.56661433 -0.44645533 0.28820074 -0.35307184 0.14364807 -0.4417374 -0.015279903 -0.90372753 0.31256428 0.45440215 -0.3959739
给 -1.3648149 0.12998152 0.9584553 -0.28683865 -0.5898253 0.16952333 -0.9392188 1.153629 0.65554625 0.4471101 0.65095115 0.078654476 0.046314478 0.67997414 0.24337047 -1.1744196 -0.055201758 -0.6187163 0.04273834 -0.7753595 -1.1634157 0.6318978 0.014670389 0.92575866 0.90441513 0.70675063 0.4640851 0.67992646 -0.10579596 0.51525414 -0.41788545 -0.5243549 0.10679301 0.23788986 0.5565738 -0.11260992 -0.48567262 0.6800517 -0.25903746 0.4362075 -1.0184504 0.023100095 0.6913413 0.48004973 -0.85161775 0.74780685 -0.53959304 0.45539555 0.3359116 -0.45558754 0.52512574 0.3651186 -1.4228137 1.0939888 0.42229536 0.5008734 0.28454643 0.2759197 -1.1604201 -0.45376012 0.501555 -1.1068091 -0.5834838 -0.17761339 -0.59923905 1.1985955 -0.31689093 0.17537928 0.21445729 0.9477227 -0.47218713 -0.74151826 0.21205395 0.60846156 -0.21778496 -1.0064913 -0.05870602 0.5398241 -0.22427318 -0.4550512 -0.2026421 -1.0340528 -0.08506857 0.002201562 0.5984879 -0.7493559 -0.37782326 -0.76807827 -0.24074017 -0.15817854 -0.74521226 0.96468455 -0.52993697 -0.26506886 0.6509777 -0.3168253 0.822727 -0.5588925 0.6497366 0.12765571
颜色 -1.2951207 0.281881 -0.2935135 -0.6114072 0.5020463 -0.35637754 0.10555757 -0.05891712 -0.72571886 -0.685121 -1.1462969 -0.1149781 -0.36962506 -0.38625744 -0.0042369156 -0.26254812 1.142995 0.5266789 -0.054744896 0.17771296 0.8228237 -0.21476083 0.16168945 -0.016973346 -0.63534766 0.21270369 0.66328114 0.2205266 0.015779063 -1.3557857 -0.31443915 0.443281 -0.13088213 -0.42906913 -0.4462011 -0.6640983 0.3531035 -0.83242315 -0.92444867 -0.13183978 0.044613235 -0.5155331 0.3830023 -0.37265942 -0.046624172 -0.32406017 0.35977104 -0.3598023 -0.397317 0.3026643 -0.5435601 -0.011006164 0.8814441 -0.2529391 -0.018015293 -0.95349556 -0.24943599 -0.5519636 -0.17650437 0.5446233 -0.21911545 1.0084944 -0.71558595 0.12752862 0.63760453 -1.0097258 0.19692442 -1.0055592 0.013130235 -1.0020216 0.45237356 -1.2382696 0.033685688 -0.24673817 -0.47608963 0.19231686 -0.21891655 0.14052159 0.1788552 -0.5418299 0.5219454 0.3852511 0.012367417 0.10631136 -0.84637094 -0.07567316 1.0174525 -0.39592582 0.44120148 -0.7133584 0.21957867 0.005532603 -0.6061853 0.21922912 -0.7302935 -0.14634559 -0.21863689 0.1745212 -0.18725045 -0.5982094
特别 -1.4873114 0.5324728 0.37124786 -0.8073054 0.13839467 0.020738712 0.08324633 -0.21040478 0.22529723 -0.9176119 -0.068064906 0.32427415 -0.044914458 -0.59569013 0.037563756 0.06362699 1.04383 0.4924131 0.270644 -0.043455075 -0.6550675 0.011748527 -0.027436845 0.3218293 -0.77398455 0.18448484 0.9889269 0.2946366 0.190625 -1.0767963 -0.46922508 0.6616611 -0.110433504 -0.37865114 -0.32361987 -0.7494067 0.5756128 -0.50982577 -1.0559261 -0.30302012 -0.93306506 -0.3439417 0.34681755 -0.040210582 -0.32145128 -0.3217829 -0.12629049 -0.5494966 -0.7342318 0.5093976 -0.85459256 0.43614656 -0.2328825 0.12632462 -0.6795097 -0.50411385 0.12899595 -0.41447604 -0.46989265 -0.012659183 -0.42765078 0.45826173 -0.4794034 -0.07173196 0.3799398 -0.49308276 -0.23027241 -1.1316981 0.040317263 -0.23248035 -0.14301687 -0.9043701 0.15019797 0.113732554 0.4367184 -0.18412149 -0.8866315 0.3994634 -0.38164243 -0.38062224 0.4477962 -0.12396331 0.5765722 -0.4248389 0.31149796 -0.15325427 0.36106703 0.08556409 -0.23423168 -0.63985056 -0.35938013 -0.13535431 0.00054243207 0.15629661 -0.4275093 0.028849794 0.022058873 -0.14795847 -0.39280057 -0.36692595
实惠 -1.4620724 0.81848705 0.44133732 -1.7222942 0.5443055 0.4087182 -1.0797085 0.8923983 -0.00408503 -0.27942318 -0.5657231 1.800762 -0.731157 -0.6964674 0.82567686 -0.67194396 0.6173846 0.61911446 0.36446375 -0.59701216 -1.1348537 -0.6371344 1.3099393 0.8002274 -0.35873908 0.8432127 1.9103822 0.35238013 0.15877709 -0.4861755 0.111609004 0.37103495 -0.031862646 -0.29805285 -0.42129523 -0.61119473 0.7781281 -0.77758855 -1.3759848 0.34127405 -0.048763778 -0.046773452 1.2967747 0.26735222 -0.32002413 0.35013902 -1.7890637 0.28545594 -0.21876447 -0.59062463 -0.56882083 -0.14052232 -0.28813127 0.09960125 -1.1086345 -0.020652717 -0.68827534 0.49215394 -0.4641449 0.19288693 -0.77192116 -0.26342666 -0.22849122 -0.12445749 -0.5249231 0.06102006 1.0837941 -0.60816646 0.56164414 0.6980045 0.16538309 -0.9364547 -0.57771313 -0.16122447 -0.6336623 0.38960668 0.24803585 -0.28272352 0.19358435 0.4072885 0.27693266 0.33984727 0.16705692 -0.17978871 0.28395802 -1.0418129 0.67620057 -0.5428078 -0.76660055 0.28175852 -0.42563087 0.6338763 0.19480857 -0.4362604 0.13505025 -0.7874781 -0.39789683 -1.0113887 -1.429452 -0.46593937
在 -0.18038887 0.10625587 -0.3129627 -0.31919646 -0.1014521 0.043392383 0.51118606 -0.25455442 0.2438053 0.23317829 0.24730788 -0.009677787 -0.09766382 0.16337527 0.28522488 -0.41823268 -0.48310095 0.44080248 0.70160234 -0.06841983 -1.0138791 0.013699896 -0.015962565 -0.68084174 -0.84447306 0.5148464 0.07727433 0.21087898 0.1500904 -0.15491553 -0.5996859 -0.1704396 0.066374935 0.362165 -0.444903 -0.13059916 -0.43938425 -0.24019775 0.53649926 -0.93542415 -0.74563175 -0.013844507 0.41620564 -0.4887327 -0.16131872 -0.11693983 -0.2536483 -0.31109175 0.051262777 0.17009605 0.22645658 0.10379812 -0.54712105 0.13070871 -0.46800038 0.043787677 0.10067387 -0.4069172 -0.522017 -0.16905619 -0.17322123 0.51961267 0.3878091 -0.15926094 -0.15591277 0.23468012 -0.49581102 -0.06949752 -0.50711113 0.27426758 0.16881216 0.37442648 -0.21379238 0.77676773 0.14867863 -0.29741317 0.6210387 -0.06561787 -0.072895035 -0.4689793 -0.30770993 0.12545496 -0.35934052 -0.8239421 -0.11969059 -0.6224665 -0.8450683 0.13307287 0.9024464 -0.6009047 -1.204377 0.30910024 -0.43945068 0.47799423 -0.18620229 -0.55695826 -0.7366896 0.86430204 0.9061071 -0.206835
值得 -1.9581301 0.1634744 0.85964 -1.0500282 0.34356278 0.5416097 -0.9068287 1.0911143 0.13727953 -0.17093964 -0.4463941 1.1758878 0.27043816 0.20038803 0.70080674 -1.1163344 0.57401997 -0.49129623 -0.25942397 -1.091506 -0.69282174 -0.5362066 0.3654711 1.245895 0.2783161 0.3968278 1.1658118 0.87664706 -0.16132794 -0.55181134 -0.21129256 -0.07916085 -0.3905832 -0.24441315 0.3060895 -0.89713776 0.13482642 -0.18871683 -0.9981195 0.83038706 -0.69555193 -0.2189611 0.93487006 0.42672464 -1.0639185 0.36722738 -1.2355533 0.09809277 0.13484284 -0.23707345 -0.5475305 -0.29324123 -0.7583986 0.41946763 -0.3481121 0.15488142 -0.16294533 0.3719723 -0.66428214 -0.18676081 -0.19514342 -0.61366934 -0.34376898 -0.06669403 -0.48034906 0.5230378 0.40095335 -0.51283985 0.7662861 0.061054517 0.19268467 -1.2689524 -0.29260308 -0.35761404 -0.43262511 -0.6665759 -0.19384564 0.4352463 -0.05007097 -0.26536736 0.49805465 -0.30544442 0.10396167 -0.43342823 0.04640971 -0.9752019 1.0720524 -0.5670611 -0.6586798 0.7157459 0.068405665 0.6366093 0.04569446 -0.8945335 0.91925764 -0.23275514 0.95730466 -1.3503276 -1.310019 -0.38346997
暖和 -1.9912237 0.7265064 0.33962792 -1.698914 0.5760258 -0.20749749 -0.043297086 0.27691507 0.035286166 -0.3700591 -0.09418239 0.8120384 -0.3149162 -0.5049905 0.5771016 -0.43828866 0.76494193 0.90715975 0.4843117 -0.027733603 -0.23983301 0.030574763 0.02916282 -0.21544577 -1.1233649 0.38080588 1.1683375 0.08174807 0.5019058 -1.1805927 -0.59917825 0.39330834 -0.17592576 0.06584541 -0.53883916 -0.74008 0.51171213 -0.742288 -1.0042297 -0.5960916 -0.59563047 0.12681665 0.63761 -0.23365371 0.1565597 0.028976744 -0.36188447 -0.79796934 -0.48296285 0.58007693 -0.7281445 0.112783946 -0.17738548 -0.19819182 -1.0916723 -0.09927532 -0.18955983 -0.80380976 -0.47662398 -0.09659666 -0.15198281 0.49930343 -0.14520177 -0.08558764 0.36860317 -0.817023 -0.5593761 -1.0732378 -0.33449987 -0.2957882 0.14661974 -0.6424914 0.267426 0.13210517 -0.10015983 0.16130687 -0.42545512 -0.14470515 -0.51925355 -0.53954834 0.39258283 -0.117660396 0.094804235 -0.42950794 0.38353407 -0.12142699 0.074413106 0.17350975 -0.33706626 -0.48331258 -0.26429507 -0.22150643 -0.012282646 0.16598076 -0.54368454 0.026463151 -0.48832273 -0.4664172 -1.1579453 -0.014191136
真的 -0.954052 0.23592806 0.0071624084 -0.817844 -0.18623756 0.07263801 -0.75218517 0.4583568 0.09961131 -1.1365087 -0.29230458 0.63772017 -0.77133036 -0.9474588 0.6584086 -0.20044501 0.26890692 0.11775276 0.12343037 -0.32023823 -0.32070562 -0.7270934 0.7127149 0.7369916 -0.46675262 0.6054464 0.5925124 -0.13804102 -0.43129104 -0.9236783 -0.5440781 0.22396451 0.33682388 -0.54388314 -0.37155128 -0.088776 -0.08058087 -0.71289015 -0.4223734 -0.12293019 -0.7152729 -0.6198486 0.6332036 -0.32460123 -0.12425652 -0.24625066 -0.3946415 -0.8010671 -0.05961078 0.48057973 -0.38753906 0.22431265 0.11553623 -0.084341004 -0.6744753 -0.8547155 -0.21053718 -0.260176 -0.1179794 0.24677709 -0.71536154 0.7207939 -0.35552424 -0.18697605 0.10312983 0.011065929 0.9456036 -0.9860424 0.065045804 -0.30823484 -0.2578785 -0.37974292 -0.32121608 1.0232443 -0.32547197 0.84225476 -0.46591073 0.2672009 0.3659367 -0.283768 -0.6509932 0.116147794 0.62065244 -0.5586858 0.0060966737 -0.74023896 0.1501775 -0.033893447 -0.52764153 0.32812467 -0.40420786 -0.36262858 -0.12951607 0.08739883 0.074297346 0.017402519 0.20583168 -0.44225195 -0.08397091 -0.34717062
保暖 -1.5347054 0.25966403 0.31989944 -1.3455399 0.42366266 0.14485803 0.04457961 0.10230154 0.0866376 -0.17438622 -0.38884115 1.1118 0.2845857 -0.3308682 0.20927258 -0.6900361 0.94078636 0.70032 0.2872509 -0.04215103 0.023278132 -0.34887636 -0.15804748 0.12680335 -0.7012168 0.06708603 1.1164095 -0.031318538 0.40060562 -1.036827 -0.54778236 0.2683083 -0.3852761 -0.30503282 -0.08455205 -0.83691037 0.5136629 -0.44302422 -0.83854663 -0.11686326 -0.6263341 -0.19756812 0.5978003 -0.054808274 -0.20356591 -0.081381954 -0.7005255 -0.2958705 -0.58380026 0.5629519 -0.6150355 -0.012195308 0.013767769 -0.35672358 -1.1369072 0.12848778 -0.06792983 -0.6975596 -0.31616527 -0.08310476 0.11592126 0.24860814 -0.012701652 -0.36923054 0.08323437 -0.8530606 -0.5266872 -1.0269926 -0.12388761 -0.91193897 0.52354515 -0.9656147 0.36904088 -0.24588855 -0.28302258 -0.25553185 -0.5764103 0.41167963 -0.54079723 -0.41537735 0.7097877 0.07751624 -0.12729412 -0.49397042 -0.30057725 -0.16846313 0.68782955 0.21986552 -0.31487086 -0.10206449 -0.320944 -0.02519582 0.26495588 -0.034403916 -0.32883483 -0.023083346 -0.32960838 -0.47257233 -1.3194613 -0.39558464
上身 -1.1296211 -0.2506838 0.66235065 -1.2515343 -0.14980382 0.5641138 -0.9632453 -0.14174251 -0.36453304 -0.41598633 -0.9582361 0.8907109 0.5720785 -0.90959316 -0.4558642 -0.7957391 1.6121005 0.12705709 0.31960094 -0.033151746 0.38860962 -0.36729625 -0.17435297 1.4367486 -0.4377238 -0.08519283 1.4033276 -0.23845729 0.090458564 -0.88746524 -1.0281595 0.53389156 -0.374743 -0.74307394 0.607505 -0.8042842 0.9647441 0.13303894 -1.4905729 0.874065 -0.90691906 -1.1012819 0.7956069 0.46410617 -1.4731935 -0.3998603 -0.8725955 0.44696486 -1.0720155 0.7909458 -1.0588799 0.53578305 0.7342025 0.21402536 -1.219557 0.13642174 0.04601027 -0.97808707 0.11400995 0.09551044 0.4809096 -0.1691602 -0.16347495 -0.8991542 -0.20540702 -0.8134537 0.04789953 -1.5169064 0.3958701 -1.9311866 0.6628321 -1.720035 0.652726 -0.9759626 -0.34796056 -0.67711663 -1.1615087 1.2812841 -0.49031913 -0.280823 1.3822968 -0.11617341 0.56463474 -0.73887473 -0.706701 0.36508816 1.3967584 0.122188635 -0.7303967 0.3459923 0.029824264 -0.14080764 0.38477552 -0.3738944 -0.9018796 0.13449538 -0.13482493 -0.63965136 -1.3671236 -1.0458589
款式 -1.9442133 0.44003358 0.117170334 -0.95707655 0.36460036 -0.4128826 -0.3360124 0.3033824 -0.20639886 -0.97680783 -0.82721853 0.5571313 -0.30339697 -0.4535537 -0.12574959 -0.33741868 1.233083 0.65078175 0.11570104 -0.08106916 0.23216873 -0.0830208 0.27053255 0.5695436 -0.2919 0.10299578 1.2118884 0.29440492 0.159277 -1.2090973 -0.155288 0.654973 -0.164785 -0.30287963 -0.24098876 -0.964089 0.711862 -0.63301736 -1.3187602 0.106210195 -0.3235947 -0.26980168 0.32057214 -0.36246416 -0.23673497 -0.22452803 -0.25768483 -0.29217046 -0.41321942 0.27361494 -0.83826005 0.023538094 0.6316941 -0.23042068 -0.38585907 -0.9752151 -0.49317878 -0.55454594 -0.25193623 0.48661903 -0.30670518 0.60588783 -0.6425661 -0.10030516 0.65608263 -0.9469261 0.21498318 -1.2791674 0.17202207 -0.71296597 0.2504512 -1.4708096 0.043413617 -0.59742683 -0.63748455 0.15712576 -0.62001425 0.4142879 -0.07981109 -0.53199893 0.7647956 -0.056742147 0.27303484 0.2777269 -0.4208022 -0.080500335 1.0884905 -0.28666374 -0.17593516 -0.3887939 0.1466742 0.0658447 -0.6227508 0.15346181 -0.45314574 -0.13743739 -0.28174073 -0.2732192 -0.9183611 -0.4837263
物流 -1.2873325 1.1379566 0.6373901 -1.2548653 -0.94705 0.44094244 -2.166628 0.14117706 -0.5102553 -1.1425307 0.04965088 -0.54273313 -1.0147407 -1.0021932 0.26380894 0.28866264 0.68102705 -0.90886116 0.22365305 -0.32341307 -1.0126503 1.0719352 0.4395692 1.6132045 -0.45290112 0.7923146 1.3622745 0.5089731 -0.29015252 -0.2004739 0.4257927 1.1637559 0.8226502 0.26275137 0.092359796 0.1701764 0.45614174 0.90540934 -1.7871587 0.80624276 -0.83376753 -0.5809591 1.2223762 0.93827134 -1.6366295 0.78676784 -0.118560515 0.7744673 0.025220806 -0.6456153 -0.8662911 0.5041232 0.23805146 1.8177401 0.89762926 -0.85669976 0.69248974 0.020652879 -0.3370006 0.2106789 -0.5248448 -0.1447842 -0.70138425 0.5597558 0.09601142 -0.391851 1.0869951 -0.7887267 0.7641865 0.9862892 -0.5796603 -1.3451769 -0.33289084 -0.3186382 0.5864836 -0.33486426 0.15036727 -0.09600497 -0.023502056 -0.37117404 0.25749117 -0.7867343 1.1944553 -0.8201014 1.4939854 0.50668263 0.17461753 -1.4673048 -0.46384615 0.36245993 1.2747316 -0.22451228 0.59256285 -0.32099074 -0.6555964 -0.1184471 0.851582 -0.52161336 0.047781166 0.60155946
便宜 -0.6296911 0.55365443 -0.22628492 -1.0190828 0.50991774 0.36893672 -0.38332102 0.42563352 0.46688104 0.18478471 -0.39543644 1.3316195 -0.63224196 -0.5636689 0.8775641 -0.56753963 -0.06158947 0.43361044 0.29613164 -0.34636268 -1.1482748 -0.551125 1.3791035 0.1186153 -0.5044505 1.084287 1.0265837 0.5394507 0.049523775 -0.19198973 0.1955924 -0.29189244 0.34937525 0.009709934 -0.6289695 -0.31597036 -0.13110338 -0.8030116 -0.21779874 -0.22024415 -0.43384907 -0.20192899 1.3323352 -0.077477045 -0.2114241 0.011746978 -1.2821301 -0.03033135 0.024371278 -0.6246875 0.19303499 -0.38628218 -0.40592268 0.17693476 -0.95511454 0.040002998 -0.20844021 0.18645763 -0.45806646 0.19261518 -0.8736725 -0.16894668 0.08424846 0.12776594 -0.51665795 0.47468135 1.1923493 -0.17204076 -0.054753505 1.1230727 0.5858531 -0.4031654 -0.68205976 0.76330024 -0.7303355 0.45324096 0.7063847 -0.52265936 0.55307394 -0.25492004 -0.25529313 0.4310247 -0.07528861 -0.31870094 -0.33638564 -1.3185413 -0.1717045 -0.66177565 -0.37432784 0.4768813 -1.0086374 0.68167824 0.21722078 -0.29025757 0.27017 -1.2562693 -0.495092 -0.4767384 -0.3309931 -0.46254972
起球 -0.46587613 -0.22091445 -0.11668217 -1.028848 0.05669808 0.033313725 -0.414381 0.24509391 -0.62687814 0.8973607 -0.32295218 0.7177056 -0.32528704 0.6026108 -0.18005179 -0.384296 1.1564453 1.4496598 -0.7223673 0.6332915 1.668473 0.5785829 -0.38672528 -0.6391193 -0.98993665 0.7521669 0.37107244 -0.575782 0.24477665 -1.0573964 -0.54357994 0.25697467 0.02099461 0.19135828 -0.042721514 0.35063183 -0.09833121 0.42501006 -0.8276258 -0.69140327 0.016060889 -0.96542436 1.0906976 0.5009111 1.0270905 0.12101858 0.12313151 0.8901857 -0.68114793 0.32168132 -0.50213313 0.085035846 0.36840773 -0.71351755 -0.17894521 -0.002386126 0.118731834 -0.83519757 0.25846544 0.03448438 1.3359363 -0.30211392 -0.8731493 -0.8874877 0.5222321 -0.91073126 -1.57244 0.12540057 -1.200476 -0.81686735 0.8537662 -1.2161132 0.12853794 0.98654526 -0.85192597 -0.012343693 -0.33455038 -0.42784125 -0.5921128 -0.46554694 -0.31311128 0.8654152 -0.58966464 -0.0711675 -0.73728174 0.19419017 1.3808298 -0.66579676 0.063879155 -2.1692033 0.2613523 0.56460553 -0.14373408 1.2957667 -1.144508 0.538501 -0.41048697 0.099990904 -0.30151632 -0.20669289
一次 -0.71748936 -1.0823134 0.21250647 -2.3735597 -1.4586729 -0.70313996 -2.4742043 1.4609771 -1.0956359 -0.5788494 0.5586003 1.7312518 -0.5674868 -0.3075031 -0.34582585 0.017227044 -0.32171202 0.59692216 0.6932491 -1.1990902 -0.09919887 0.12356441 0.51761067 2.327052 -1.0263445 -0.17008981 -0.034492664 -1.612767 -0.83851904 0.25699028 -1.0812167 0.6241559 0.5994136 0.9517365 0.9138414 0.7600044 -0.025484081 1.254039 -1.3961482 0.9778451 -1.5255258 -0.35082057 0.84325707 -1.1257979 -0.75448877 0.14019129 -1.4402281 0.6355771 -0.13594112 1.2339752 -1.3377031 0.49691308 0.07644027 -0.6018173 -0.8876876 -0.91397256 -0.82473373 -0.5457462 0.3160665 0.31482387 0.9564203 -0.7354692 -1.137062 -1.4734421 0.93691695 0.4399803 0.45346612 -0.90459925 -0.4987689 -0.3997145 -1.4907674 0.036002863 -0.25541928 1.8680019 -0.3941949 -0.2884116 -1.0561285 0.10737307 -0.94803625 0.48574063 -1.5328535 0.27323258 0.7148665 -0.7073158 1.075627 -0.32284087 -0.613211 0.8662031 -0.752378 -0.66867006 0.43227783 -0.14106478 -0.3346236 0.6570624 0.42221314 1.186267 0.5408057 -0.076619186 -0.7828744 0.6990019
和 -1.0405779 -0.39191142 -0.57775027 -0.37009057 0.5771113 -0.6104641 -0.3376518 0.117088675 -2.059398 -0.8508305 -1.1202945 -0.93466157 0.0016757188 -0.20952359 -0.2697288 -0.24480188 0.6230481 -0.12779503 0.23074916 -0.64826715 0.16834092 -0.37935215 0.760943 0.97571063 -0.4052694 -0.20898154 -0.38790682 0.3183671 -0.42934346 -0.6250167 0.07084911 -0.24975866 -0.17956597 -0.026803132 -0.3822944 0.03883908 -0.32347357 -0.6897331 -0.28147414 0.21889055 0.04772973 -0.9526225 0.1258041 -0.7777148 -0.5723891 -0.08837522 0.076634765 -0.29452172 0.014170797 0.09127722 -0.09309518 -0.07377533 1.3327872 -0.18057689 0.61493784 -1.452388 -0.08192694 -0.42693624 -0.1743048 1.2777007 0.3703485 1.1027874 -0.8669772 0.7291122 0.8296845 -0.36139143 1.7002585 -1.1250238 0.62420434 -1.2091464 -0.10631301 -0.7112614 -0.25399646 -0.7086844 -0.5111307 0.5849163 0.3066885 0.2142975 0.29387757 -0.050252378 -0.023049247 0.50407773 -0.101909354 0.5290998 -1.6792674 -0.1928501 0.6477031 -0.85305804 1.2316012 -0.7728158 0.17710271 0.41367576 -1.5105637 0.30341217 -0.61706465 -0.54527855 0.39188617 0.8969977 0.69792515 -1.0467641
哦 -0.61407614 0.1620244 0.46704814 -0.50811994 -0.60282385 0.58129627 0.15447044 0.27030483 0.7487891 -0.32008758 0.12364556 0.4949197 0.6278352 0.349672 0.57308805 -0.9864482 0.20276621 -0.38447785 -0.23070665 -0.5776691 -0.107928425 -0.5212647 -0.43729055 0.36061954 0.34255266 0.06694516 0.51779175 0.06416051 -0.23966596 -0.7274823 -0.6250355 0.3875663 -0.38139603 -0.60527456 0.35603693 -0.36985818 -0.23894659 0.23401637 0.27273798 0.47692034 -0.7850735 -0.04593815 0.29104516 0.36182427 -0.42212102 0.37044996 -0.55908054 0.03324655 0.39703894 0.32457373 0.036013 -0.22660382 -0.91778266 -0.038892448 -0.16846392 0.061730072 0.47802523 0.28348795 -0.41908568 -0.6209772 -0.16397281 0.20409316 0.18074287 -0.17117077 -0.46021345 -0.450185 -0.9259818 -0.4510196 0.13647449 -0.9790671 -0.10861903 -0.34471205 -0.056138273 0.21890822 0.11474898 -0.71079075 -0.33351776 1.1811223 -0.345117 -0.24477713 0.31865135 -0.261173 -0.7506951 -0.77833176 -0.009587665 -0.5271048 0.81730276 0.34388766 0.2635499 0.3868139 -0.53403217 0.348242 0.35244521 -0.3476642 0.78079075 0.3211091 0.32619315 -0.3049512 -0.11415559 -0.16770686
合身 -1.9721746 0.5260046 0.28614298 -1.7264165 0.243648 -0.095884554 -0.59711635 0.3074864 -0.6676416 -0.85203767 -0.4091356 0.48370275 -0.29257935 -0.5625335 0.1724496 -0.46139348 0.97472245 0.33218482 0.5026619 -0.38519067 -0.21159661 -0.017099394 0.06387892 0.61755556 -0.6929146 0.014535312 1.1928704 0.09470702 0.21507587 -1.1314142 -0.43383083 0.7475889 -0.02251368 -0.05887558 -0.23008661 -0.5939866 0.5439205 -0.33736256 -1.4368235 -0.043794654 -0.27313602 0.01728516 0.66241884 -0.14439484 -0.30900654 0.29597864 -0.4130194 -0.36709642 -0.3579771 0.51548463 -0.8344203 0.247128 0.040762156 0.12442554 -0.49723762 -0.52603984 0.0075581274 -0.46063626 -0.36587492 0.21223061 0.03818392 0.4041091 -0.4520033 0.39101815 0.44622263 -0.86175674 0.04231102 -1.2228733 0.07802298 -0.68998694 -0.08594786 -0.7694311 0.14984785 -0.38972694 0.09430222 0.08169735 -0.5055054 0.1964277 -0.51875055 -0.29838562 0.43354467 0.058439855 0.2050905 -0.116042875 0.44850487 0.211407 0.3898454 0.045548707 -0.16453876 -0.49177262 0.2930519 -0.17725189 -0.010504004 -0.0043088184 -0.5436574 0.073243394 0.08322845 -0.44594643 -1.0595722 -0.06656036
购买 -1.1655202 0.15093614 1.1884524 -1.1786859 -0.0723436 0.20490313 -0.90012926 1.4063015 0.31877333 -0.12052485 0.06660147 1.0854119 0.36957192 0.3374319 0.6722511 -1.0904732 0.09674061 -0.23613437 -0.2541245 -1.0279379 -0.90382487 -0.58955437 0.70748156 1.5914145 0.5792472 0.4314325 0.7661904 0.6537013 -0.21048307 -0.17300399 -0.09927723 -0.26420975 -0.035119597 -0.30380002 0.30262804 -0.425109 0.2630481 -0.3163566 -0.49633974 0.9779571 -0.592516 0.107513376 0.8538237 0.38410076 -0.76924753 0.8325498 -1.4740721 0.44735086 0.05475471 -0.30739534 -0.2395068 -0.38345805 -0.9037856 0.4033633 -0.49204978 0.117053434 -0.04271289 0.73778826 -0.5870369 -0.40496716 -0.22111988 -0.7383021 -0.25891697 -0.06424223 -0.49163523 1.0127637 0.5630654 -0.58238643 0.64844674 0.4229079 -0.5262924 -0.99559623 -0.04001133 -0.031750947 -0.35813665 -0.28337514 -0.1443559 0.72463274 0.28294092 0.023353036 0.2546931 -0.7633936 -0.4382024 -0.16071062 0.030506916 -1.2461169 0.6164716 -0.27036387 -0.45281756 0.8122407 -0.5743706 0.72820836 -0.25817397 -0.42693081 0.8652103 -0.14176556 0.3961709 -0.8973786 -0.3460394 -0.44076422
; 0.35593483 0.7949833 -0.77039427 -0.80784285 -1.229276 1.0043159 -1.5487356 -0.46465194 0.06285425 0.26003933 0.5936299 -1.7486526 -0.077642255 0.9590381 2.2594416 -1.4038645 -1.4178517 -2.0580862 0.5635724 -0.33228815 0.49216753 -0.16359335 -0.07732197 -0.92358637 -2.1578014 0.766781 -0.7730289 0.6224235 -0.53335756 -1.6453509 -0.39592355 1.2579774 0.34912556 0.30260783 0.7796823 0.09140907 -0.8659968 1.5243175 0.67508215 0.16566516 -1.3133148 -0.2834665 1.053747 0.97629803 -1.3123037 0.2115163 0.67531216 0.7930864 1.2253808 0.79384196 0.31535634 0.453836 0.9840938 1.6123184 0.086261444 -0.7544216 1.558165 -1.7621983 0.5470026 -1.1565374 -0.31313536 2.7294033 0.18048246 -0.7046735 -1.0015951 -1.3359139 -1.1691037 -0.980328 -0.13727856 -1.1498549 0.7213371 0.17065144 -0.13335882 0.557799 0.784106 -1.4526681 2.0785022 -0.07698551 -1.0178192 -1.6266154 0.5453306 -0.8789885 -0.28628078 -2.1792061 -0.7946515 0.49396822 -0.24741101 -0.25723812 2.6064014 2.0224519 0.8787677 -1.5551801 -0.2519664 -0.73362374 -0.8323543 0.5886207 -0.834434 1.1549243 -0.041914202 0.3405962
没 -0.101689436 -0.22513081 -0.07734257 -0.8465917 -0.44387063 -0.25439465 -0.38251403 -0.15754132 -0.8425723 0.5450236 -0.4794518 0.051577643 -0.15397221 0.3196097 -0.4402838 -0.57769746 0.9799239 0.86065024 -0.4882488 0.5297444 0.8042074 0.72638947 -0.22358482 -0.32094404 -0.7267305 0.51970315 0.35630336 -0.15899482 -0.03513802 -0.40544757 -0.5990897 -0.042407703 0.2562247 0.30182314 0.06026487 0.38589105 -0.13310081 0.49914435 -0.49052998 -0.32411298 0.10648327 -0.5703325 0.8818143 0.09116124 0.5840088 0.12962477 0.2823184 0.7596121 -0.39340675 -0.012006765 -0.25356743 0.054683186 0.21877138 -0.25264004 0.49087644 -0.4376958 -0.03642164 -0.45040166 0.038950138 0.23130205 0.7763559 -0.0978021 -0.649554 -0.46031985 0.5431211 -0.6979626 -0.65750515 0.39923626 -0.7718041 -0.45654088 0.37346748 -0.8585038 0.07377033 0.61672926 -0.72511476 -0.39396176 0.26406226 -0.27921754 -0.010303937 -0.3931451 -0.044243388 0.7690398 -0.44168332 -0.022314847 -0.41872957 0.468916 0.38707313 -0.6046868 0.33765483 -1.9800481 0.15896322 0.7633496 -0.42995638 1.0712608 -0.9952554 0.09245115 -0.14247313 0.85711706 0.69026583 -0.21830349
还是 -0.92634577 0.31756604 0.078055136 -0.6168148 0.040190764 -0.11998891 -0.16835214 0.25090948 0.20379278 -0.2531055 -0.13856673 0.16475132 -0.16097169 -0.16174977 0.74949574 -0.4905487 0.015702413 -0.021713112 0.20247546 -0.0047956323 -0.1599785 -0.21316202 0.33906794 -0.05899963 -0.35285467 0.42154434 0.20956571 0.15899071 -0.02055736 -0.19034165 -0.35207713 -0.45811802 -0.3898795 -0.13124709 -0.3198371 -0.39669082 0.2242179 -0.46532708 0.12360771 0.28905046 -0.84096694 -0.19877629 0.09860417 -0.42348862 -0.2783174 -0.27763364 -0.2500258 -0.69223154 0.024698406 0.15636604 0.12063535 -0.24295841 0.28731528 0.035272334 -0.28954977 0.0032133588 -0.24544328 -0.36623222 -0.26924396 0.13994732 -0.42374828 0.4729806 -0.010262038 -0.37696484 0.13620123 -0.084848545 0.2333073 -0.48664066 0.25948584 0.07812179 0.12293595 -0.42625093 -0.24483724 0.33168855 -0.5432969 -0.033848047 0.24751283 0.11345042 -0.00809348 -0.6791071 0.19584638 -0.24070142 0.12201729 -0.5341653 -0.42852446 -0.66364557 -0.051792387 -0.24185233 0.13767752 0.61165583 -0.45268136 0.19870827 -0.6988287 0.068582654 0.26693723 -0.20396183 -0.299768 0.26537287 0.057137486 -0.22484812
& 0.28321004 0.8040138 -0.68390846 -0.8395359 -1.0879982 0.9666121 -1.3930368 -0.43297106 0.23296696 0.13059616 0.57723767 -1.5193546 0.037247747 0.8020317 2.1766698 -1.3905642 -1.3631339 -2.0088978 0.6200359 -0.44340402 0.182145 -0.24325158 -0.039582193 -0.75359887 -2.0413895 0.63757336 -0.64980453 0.5867789 -0.47365612 -1.52973 -0.35555434 1.184483 0.35860583 0.2869233 0.77229124 -0.021473693 -0.75670177 1.3188605 0.6315722 0.15116481 -1.3743653 -0.13682222 0.9987273 0.90659934 -1.3840579 0.27919024 0.5027628 0.71111447 1.1951672 0.7858081 0.32524815 0.41842246 0.78245556 1.6136866 -0.065202825 -0.712592 1.4772949 -1.5801804 0.48423046 -1.1266859 -0.4072318 2.5616584 0.31198767 -0.64659536 -1.0409845 -1.1836264 -0.97397494 -0.9182099 -0.042185497 -1.0749433 0.6699828 0.23897013 -0.115481056 0.49331588 0.8378407 -1.4333152 1.8837713 0.04118181 -0.99681735 -1.5189267 0.55226403 -0.90431726 -0.18950716 -2.1440394 -0.693225 0.3789942 -0.40481716 -0.14652227 2.368605 2.1577337 0.7332922 -1.5257322 -0.0684027 -0.87827396 -0.6746514 0.545418 -0.73544806 1.003523 -0.1601921 0.30338877
会 0.4075497 -0.48613137 0.070093706 -0.023061568 -0.17804585 -0.28382063 0.34619057 0.6614152 0.25542715 0.94563603 0.5338609 0.30713174 0.14867827 0.94404966 0.13528377 -0.6155362 -0.2522218 0.6930147 -0.09638575 -0.103025496 -0.05121882 0.6635235 0.04888491 -0.15158996 -0.23091498 0.8477377 -0.041970912 0.11471799 -0.047173686 0.113119036 -0.69606537 -0.69789386 0.04373283 0.76211 0.14203787 0.19105878 -0.88128614 0.25754455 0.6751777 -0.6515514 -0.7929572 -0.36805063 0.6870057 0.067044295 0.18859829 0.18087983 -0.102997795 0.84457207 0.09125432 -0.07494698 0.13119951 -0.18732758 -0.6857839 -0.30177 0.11373079 0.35388166 0.088774435 -0.45995206 -0.17189418 -0.56821156 0.6685734 -0.48560905 -0.38629013 -0.96890324 0.036303256 0.62504435 -1.0764738 0.54881614 -0.7742079 0.24843776 0.061525796 -0.47462544 -0.34736532 1.4958223 -0.46457502 -0.6483395 0.30989447 -0.05139055 0.11993805 -0.77944624 -0.59083116 -0.34906048 -0.8762532 -1.0338104 -0.60432994 -0.899301 -0.07113317 -0.029418333 0.92128277 -1.2628554 -1.078529 1.0092934 -0.63041866 0.5045862 -0.3827742 0.012943026 -0.7271249 0.6167037 1.5468888 -0.35426885
.衣服 -1.7234787 0.13102633 0.53168464 -1.2645074 -0.13707681 -0.010173258 -0.80959296 0.571517 0.12083892 -0.94297916 -0.28468633 1.4226706 -0.15528113 -0.5155148 0.08498094 -0.6811631 1.1701895 0.53295606 0.124372825 -0.5061542 -0.42849937 0.043127075 0.26431897 1.4948683 -0.055415656 0.0112301195 1.2291181 0.021178575 0.35833895 -0.34191185 -0.26349565 0.28684413 0.15044925 -0.112804025 0.2272108 -0.14251581 0.577861 -0.13095707 -1.3150746 0.30051762 -0.42830843 -0.06280046 0.7574094 0.010057823 -0.3783364 0.22487509 -0.86220723 0.0073704952 -0.6413609 0.2320096 -0.5227858 -0.009137566 -0.27985266 0.2868687 -0.40021998 -0.46614966 -0.28635782 -0.1276608 -0.19619057 0.29455674 0.07253512 -0.65720135 -0.32484964 -0.1899999 0.3698814 -0.23849945 0.46977067 -0.56064993 0.05995654 -0.07872002 -0.08734196 -1.2918732 -0.29202327 -0.088359304 -0.5380008 0.15314981 -0.9131165 0.34175894 -0.29030567 -0.3786382 0.15845445 -0.11016662 0.53391707 0.028006941 0.5834424 -0.0011525047 0.3390714 -0.032917373 -0.8418234 -0.17597882 0.019902447 0.31893668 -0.19907191 -0.10591664 -0.24772295 -0.11894498 0.29347396 -0.3496398 -0.5635892 -0.31587228
舒适 -2.023944 0.6415246 0.4609292 -1.6970183 0.28641358 -0.038561676 -0.6322005 0.39439937 -0.49785882 -0.8840038 -0.40901017 1.1783019 -0.11398176 -0.17468607 -0.031671043 -0.601688 1.4969878 0.6978533 0.17554955 -0.41950446 0.121528044 0.08866525 -0.00956347 0.77842677 -0.34090564 -0.3329973 1.4950788 0.12174193 0.42722726 -1.4109538 -0.00014129905 1.3673606 -0.26527792 -0.1476935 -0.028372632 -0.797748 0.8701497 -0.010875288 -1.792282 0.09448094 -0.1871915 0.17167895 0.787733 0.15005355 -0.30112627 0.25066873 -0.83074176 0.33734033 -0.5406219 0.31537917 -1.1876118 0.05138251 0.3185491 -0.23692466 -0.62923884 -0.63711864 -0.074483015 -0.5356614 -0.17113096 0.07342206 0.036596622 0.30842853 -0.6253902 -0.016742576 0.64169276 -1.5170405 -0.34055418 -1.3579075 -0.09899276 -0.9735347 0.21307105 -1.56183 -0.003945366 -0.80138594 -0.13247925 -0.20613068 -0.61499137 0.4716907 -0.92685944 -0.3714536 0.7617036 0.07058707 0.0144806625 -0.07222277 0.3197838 0.43864176 1.3961455 -0.053056225 -0.10818961 -0.72103083 0.418641 0.13764149 -0.20077968 0.14222571 -0.6863665 0.2719488 -0.41864532 -0.4992595 -1.7071834 -0.1872453
很快 -0.8496704 0.6580324 0.5762336 -1.0206422 -1.0646836 0.54811186 -1.9724208 0.2875726 -0.932975 -1.0237086 0.13076787 -0.46477583 -0.98070586 -1.0013013 0.062026408 0.59350604 0.4389344 -0.4082646 0.30741844 -0.22465964 -0.7030029 1.0622447 0.743218 1.8611366 -0.41584906 0.7321057 0.82857376 0.033297673 -0.33639747 0.47615796 0.08963766 1.1739453 0.797745 0.53951186 -0.12888591 0.6001885 0.7146864 0.73819727 -1.6440338 0.73870236 -0.50005275 -0.5168416 1.3960828 0.5003782 -1.2336428 0.50833136 -0.24088094 1.0005337 -0.46188414 -0.3475016 -0.69807416 0.4809184 0.37517887 1.3670707 0.7019896 -0.54444045 0.06380236 0.11814724 0.1780763 0.32547718 -0.4901297 -0.42936403 -0.69489497 0.36310914 0.4870131 0.16993238 1.1449007 -0.5175452 0.28595912 0.93067306 -0.88941556 -0.7566583 -0.65785974 0.4344713 0.653973 0.19471347 0.11682435 -0.27787325 0.26724142 0.12620248 -0.38277406 -0.34713376 1.7072307 -0.6581944 1.7792953 0.5065946 -0.45392096 -0.96708876 -0.222512 -0.024432383 0.9739209 0.01397779 -0.08736005 0.043640934 -0.7285119 0.049224395 0.45255092 -0.08402517 0.559605 0.24203862
再 0.16564791 -0.5226968 0.24968165 -0.013740499 -0.18632387 -0.026913056 0.5672664 0.7100473 0.7533007 -0.20844969 0.5659135 0.80100715 0.22394596 0.051566523 -0.02374127 -0.39184913 -0.68608135 0.552993 0.7841585 -1.1424618 -1.5327771 0.10910254 0.49271855 1.1533064 -0.096091025 0.6566191 0.8464619 0.44494498 -0.10981117 0.14293274 -0.46296585 -0.19561376 0.47323492 0.91896915 0.09693327 -0.046962366 -0.9239369 -0.28902775 0.44332018 -0.7343844 -1.0267962 -0.016628832 1.1050986 -0.20728332 -0.7848605 0.5347549 -0.786366 0.70402783 0.40803322 0.12720007 -0.18298332 0.045683376 -1.3198044 0.2529354 -0.47658053 -0.054717753 0.047202874 -0.0486414 -0.24360585 -0.6452112 -0.24370192 -0.1881805 0.42522386 -0.39248377 -0.5037019 1.1849495 -0.14560361 0.022598227 -0.26343998 0.056615043 -0.52655894 0.019621098 -0.6194649 0.97065854 0.29774323 -0.14041802 -0.23473391 0.6876061 0.45266598 -0.37949008 -0.7444769 -0.87296003 -0.42862317 -1.6190028 0.17904918 -1.1201596 -0.46417105 0.8315077 0.7306296 -0.21946625 -1.5106373 0.37917262 0.21199316 -0.3257029 -0.13331527 -0.34965265 -0.7544225 0.22422415 1.1560147 -0.65188986
又 -1.0424975 0.49302763 0.080196336 -0.695174 0.5897769 0.18398538 0.32342747 -0.0037026275 0.7112166 -0.08768221 -0.19561072 1.3683527 -0.15005216 -0.10337135 0.3144902 -0.5963715 0.5868343 0.8327796 0.33864367 -0.25929657 -0.8929481 -0.27341375 0.39110395 0.07275853 -0.55805254 0.17278677 0.9755175 0.49726745 0.59598756 -0.67507094 -0.016657379 0.40533844 -0.08063655 -0.056019906 -0.399812 -0.7056203 0.26985648 -0.5944369 -0.604943 -0.5270082 -0.5573468 0.2626154 0.84861696 -0.26930758 -0.36343223 -0.079179384 -0.8774454 -0.082378544 -0.5265225 -0.0755909 -0.32936326 -0.13584965 -0.38729775 0.01388304 -0.9743189 -0.0574376 -0.0867744 -0.17965807 -0.4292543 -0.10105741 -0.540385 0.09458652 0.0016959951 -0.11655627 -0.0073597226 -0.2979026 -0.048329342 -0.564254 -0.31929636 0.32202423 0.60414207 -0.7765378 -0.32217273 0.18079752 -0.21918944 -0.13764009 -0.05064728 0.11159745 -0.42500082 -0.4650662 0.31027752 0.11535987 -0.010894709 -0.3501941 0.081017636 -0.48580712 0.114300996 0.034267437 -0.17740606 -0.09514701 -0.7046106 0.33106717 -0.11591344 -0.15671638 -0.08311957 -0.5953163 -0.609822 -0.1200482 -0.7301109 -0.37271607
就是 -0.2335225 0.22094232 -0.24487987 -0.34147722 0.18257518 -0.040176008 0.5078409 -0.3483663 0.059672166 0.26201385 -0.25734016 -0.1548335 0.029894834 0.06787258 0.43236014 -0.3838974 0.39755407 0.44153935 -0.10200927 0.47810876 0.5547885 0.30967167 0.12809125 -0.6876782 -0.7841962 0.5509368 0.26843938 0.34073493 0.2751887 -0.5239537 -0.40643558 -0.25280768 -0.22838251 0.12360533 -0.39392805 -0.350399 0.071292326 -0.20778047 0.021084016 -0.21618818 -0.4875551 -0.41332462 0.34312642 -0.021950725 0.13180235 -0.3293553 0.19400701 -0.011597456 -0.3187191 0.05095075 -0.119389296 -0.26048374 0.2636902 -0.014285913 -0.061939146 -0.050521076 -0.05969847 -0.44758388 -0.030405477 -0.022340514 -0.13235505 0.40356052 0.015077354 -0.24105375 0.16772662 -0.54808474 -0.5282258 0.00062519254 -0.34043336 -0.08880893 0.5592948 -0.38986102 -0.032224253 0.24038349 -0.34420404 -0.10873877 0.1835924 -0.26347736 0.012637997 -0.76065373 0.46116215 0.05797848 -0.3212612 -0.34914303 -0.71697396 -0.16755348 0.1473113 -0.26762894 0.6447411 -0.6111771 -0.34122428 0.3965456 -0.41445708 0.30915865 -0.61641335 -0.23524421 -0.76596224 0.6808849 0.37237725 -0.4174638
说 -0.791641 -0.0065362724 0.057204794 -0.19036095 -0.07074717 -0.21124142 -0.065843396 0.32021236 0.19498993 0.06351488 0.016349535 -0.16522446 -0.2728083 0.038391635 0.13145821 -0.22932583 0.1559382 0.122597784 0.17314376 -0.05629258 -0.5315662 0.04977772 0.032068197 -0.13848785 -0.26200235 0.6799893 0.16850682 0.19168052 -0.14909127 -0.22467886 -0.6268399 -0.46197602 0.012296728 -0.13795823 -0.19911958 -0.22130853 -0.30078772 -0.2864934 0.029954018 -0.34262952 -0.77642775 -0.49881366 0.27489945 -0.2747096 -0.10952323 -0.025419239 0.097834356 -0.52994555 -0.09114394 0.15074994 0.10110171 0.2814322 -0.2643237 0.1795569 -0.030253688 -0.23635015 -0.06450432 -0.38256738 -0.60201263 0.09967695 0.09672604 0.06166363 -0.5226692 -0.14952345 0.12798676 0.47517648 -0.10366594 -0.32646173 -0.083124034 0.2027921 -0.02287571 -0.44162112 0.09482367 0.782355 -0.29715785 -0.10781278 -0.1441316 0.2311716 0.108149484 -0.49207973 -0.2591291 -0.11232688 0.071325704 -0.13522527 -0.15737423 -0.5851268 -0.21098807 -0.32310542 0.16796876 -0.49244827 -0.88566685 0.4372646 -0.6863496 0.36243966 0.074398525 -0.3996407 0.1654183 0.32481462 0.764365 -0.23828885
感觉 -0.77630067 0.30760837 -0.1523641 -0.66751534 0.252656 -0.17320314 0.4281942 -0.2776782 0.017944366 -0.009620558 -0.19920366 0.24406153 -0.10657441 -0.046710663 0.2223735 -0.40371487 0.616139 0.85920477 0.2071067 0.33459 0.18420416 0.26028982 -0.03917428 -0.6056477 -0.9039697 0.24811181 0.52917254 0.08763983 0.4722823 -0.66779506 -0.47347757 0.054157164 -0.18167958 0.17280842 -0.38475192 -0.3901618 0.2343525 -0.3246877 -0.3287769 -0.5499942 -0.3826121 -0.12936923 0.35810712 -0.28895587 0.1762544 -0.27085713 -0.012217132 -0.31209153 -0.4777496 0.28388393 -0.23770049 -0.044140533 0.19661313 -0.13786246 -0.3427014 -0.19363384 -0.17681326 -0.7034883 -0.16816694 0.06450956 0.026854917 0.4095889 -0.025520025 -0.27901754 0.40597665 -0.71966374 -0.6720511 -0.32404536 -0.5277931 -0.30173337 0.4794135 -0.4857985 0.06291992 0.1316335 -0.37151402 -0.055591997 -0.09702961 -0.1308939 -0.38576317 -0.6512276 0.32848626 0.124316916 -0.13848114 -0.23213862 -0.34026992 0.00020810515 -0.005518939 0.0028809228 0.37512875 -0.8880267 -0.39808115 0.1806993 -0.4778717 0.49057606 -0.72519684 -0.24326791 -0.7794941 0.5340671 -0.040174484 -0.24194495
一样 -1.3314165 -0.51291597 -0.75407577 -0.74457693 0.7027076 -0.75427747 -0.47364116 0.0791455 -2.385713 -0.68947965 -0.9782469 -1.2745878 -0.23068212 -0.34085265 -0.20143895 -0.15679245 0.25925484 -0.06840284 0.4083792 -0.49483222 0.2862957 -0.387266 0.735286 0.5776939 -0.7039627 -0.12632282 -0.53183454 0.16726932 -0.42626432 -0.8463165 0.04268401 -0.37247062 -0.0060543558 0.22928438 -0.4382013 0.11220678 -0.69494647 -0.61288667 -0.2045721 -0.1094703 0.01931303 -1.108565 0.22054112 -1.0315979 -0.31932914 -0.12808892 0.29942894 -0.6717064 0.1382427 0.2966042 -0.098362364 0.020425636 1.4748937 -0.24042366 0.60012317 -1.6496686 -0.094958276 -0.77000964 -0.37535536 1.4809146 0.63668746 1.4689727 -1.1140673 0.78812087 0.9774319 -0.49198806 1.6323606 -1.3290719 0.44733796 -1.2689782 -0.10407063 -0.4649744 -0.09475326 -0.43468353 -0.5756553 0.6908672 0.50649613 -0.047099352 0.13060142 -0.1674801 -0.3759447 0.6990033 -0.14808607 0.6758771 -2.020948 -0.20553046 0.37707773 -1.0458711 1.3788279 -1.0631443 0.2044028 0.26308626 -1.5265049 0.6270086 -0.65754485 -0.6268147 0.6467613 0.91613823 0.62902695 -0.7905068
快 -0.98074526 0.9930845 0.6146612 -0.84910506 -1.0394026 0.8377534 -2.0511892 0.2901234 -0.5982538 -1.4664103 -0.073777564 -0.5341041 -1.0430104 -1.0935391 0.61803657 0.21413167 0.44082138 -0.9869326 0.21551184 -0.43678275 -0.9705784 0.5895544 0.9143329 1.9318746 -0.19404735 0.928288 1.0793276 0.5024537 -0.62794435 -0.046119258 0.12229483 1.2762591 0.7698048 0.101749405 -0.073807955 0.3923651 0.41055492 0.48654434 -1.4162328 0.80192107 -0.725507 -0.6949614 1.5338912 0.7491051 -1.5913153 0.5194371 -0.3046832 0.8644504 0.032800384 -0.5077067 -0.5534189 0.45727983 0.33781546 1.6822699 0.7727372 -0.6500888 0.45410663 0.21549998 0.00049284135 0.09142764 -1.0530012 0.16048715 -0.63849044 0.5550173 -0.047127232 0.18254575 1.5126832 -0.7638726 0.6045769 0.7873512 -0.7454781 -0.95570123 -0.67350787 0.3026936 0.70475626 0.18378663 0.39601633 0.042941317 0.5064778 -0.0691898 -0.32926935 -0.59462905 1.5497783 -1.0073769 1.5292239 0.16665201 -0.122324206 -1.2524688 -0.26103222 0.8000196 0.99178636 -0.4120119 0.24745226 -0.44357044 -0.4257386 -0.06533426 0.66954845 -0.5730536 0.50442135 0.15434994
加绒 -1.5430845 0.36720046 -0.13150086 -1.2978383 0.44978172 -0.4278186 0.55788624 0.1175548 0.23134464 -0.3890293 -0.04913869 0.96473736 -0.03613505 -0.442569 0.48218164 -0.48304495 0.53651047 1.0583148 0.48868468 0.07739697 -0.10241647 -0.20071101 -0.00033460307 -0.44072816 -0.99761623 0.12702495 0.74366754 -0.09020468 0.47967744 -0.8942893 -0.51861334 0.0048648785 -0.31523216 0.010427124 -0.4824115 -0.93305045 0.39730686 -0.70147336 -0.40272498 -0.6196833 -1.0039722 0.075556636 0.22418478 -0.75263727 0.25964403 -0.52726674 -0.3924186 -1.0749798 -0.43507224 0.75233 -0.4712814 -0.121796586 0.031801376 -0.7050671 -1.2396368 -0.22695649 -0.4015856 -0.91324496 -0.3833469 0.13848205 -0.20266865 0.7480312 0.10009532 -0.34270325 0.56758934 -0.8737814 -0.5370474 -0.9273737 -0.40473476 -0.6047733 0.32025483 -0.41416243 0.10130798 0.43639874 -0.40763596 -0.03460439 -0.47808325 0.08826409 -0.6038744 -0.7183669 0.27164853 0.12570137 -0.07253779 -0.46121764 -0.32240996 -0.33971012 0.035969403 0.46750596 0.08792481 -0.37591046 -0.76100504 0.025875406 -0.26125658 0.4046539 -0.18558343 -0.022073573 -0.7251982 0.11367624 -0.8634711 -0.12072832
大小 -1.8973572 0.33061752 0.26900387 -1.4952753 0.13031185 0.1669703 -0.5860894 0.15766601 -0.9242836 -0.6082498 -0.6982582 0.8419121 -0.036632862 -0.40862215 -0.8324425 -0.3028396 1.6050665 0.47536543 0.71155125 -0.36539793 -0.6637837 0.20854402 -0.454559 0.80915815 -0.6006595 -0.16648386 1.497397 0.34338155 0.58527696 -1.0859077 -0.3231123 1.3125981 0.2573957 -0.1426028 0.101961836 -0.84901524 0.89959973 0.113738365 -2.029254 -0.075805485 -0.016995125 -0.02290055 1.0130608 0.016434718 -0.74392754 0.19107093 -0.7551496 0.26795068 -0.88512063 0.3904813 -1.2534969 0.42808974 0.069872685 0.45504478 -0.47427177 -0.7353993 -0.23348059 -0.5159245 -0.5368411 0.36939934 0.06911267 0.1897552 -0.61035794 0.4109797 0.46675324 -0.7597086 -0.1540484 -1.0552696 0.15853871 -0.52057827 0.4031194 -1.4197199 0.23912759 -0.80894 0.08665951 -0.44504195 -0.65887684 0.5975239 -0.6769116 -0.14608122 0.81588113 0.18241887 0.39821514 0.118730634 0.7212386 0.8147507 0.7162905 0.054596737 -0.34583908 -0.8677924 0.31574455 0.22458942 -0.056025177 0.06919491 -0.87190753 -0.2948988 -0.053302698 0.0980491 -1.1112828 -0.21238776
到 -0.2656371 0.64214456 -0.25300267 -0.75294703 -0.47116482 0.49320936 -0.6815968 0.04806261 0.44928828 -0.035264596 -0.0661474 0.61770207 -1.117894 -0.7965178 0.6923543 -0.29224467 -0.05640868 0.25892174 0.30201614 0.14687766 -1.2847072 0.21181814 1.1920333 0.0825526 -0.62316763 1.2902441 0.84287006 0.36197957 0.13918301 0.34520286 -0.16005822 -0.12965359 0.81064445 0.17100233 -0.71387994 0.21478778 -0.15294392 -0.17732154 -0.23645629 -0.39150834 -0.6428395 -0.36888182 1.5420837 0.100969106 -0.26331207 -0.18538637 -0.71492416 -0.00076558365 -0.17161039 -0.67385674 0.38529882 -0.053063154 -0.31292638 0.8623165 -0.2357078 -0.16977364 -0.13114223 0.15088217 -0.2927619 0.1240117 -0.8968302 -0.19917668 0.08434984 0.121358484 -0.28673497 0.62784016 1.086206 0.3379208 -0.3271281 1.7464023 0.39922577 -0.13253056 -0.7613788 1.395872 -0.46395153 0.4464341 0.7235476 -0.67644453 0.5689841 -0.52695465 -0.6902814 0.38348055 0.64532906 -0.3935709 0.4858093 -0.7226965 -1.0324764 -0.8563596 -0.20599054 0.03173908 -0.9563702 0.65755594 -0.10405666 0.25125495 -0.2869474 -1.1419406 -0.4212518 0.4255638 1.0221264 -0.11355126
里面 -0.88998336 0.43500042 -0.24710926 -0.9791049 0.40672743 -0.24968576 1.0330368 -0.54897225 0.14404204 -0.027807176 -0.15681049 0.5253741 0.07773489 -0.034258354 0.32192037 -0.5325289 0.64269817 1.2721051 0.3443805 0.4225382 0.32652307 0.13493542 -0.27791858 -1.113837 -1.3404621 0.027091151 0.73679155 0.01981242 0.6601634 -1.0797234 -0.59994495 0.32281494 -0.5038013 0.11292472 -0.54962504 -0.8806494 0.41627717 -0.48034424 -0.3174848 -0.8071126 -0.72163033 0.08453489 0.43215826 -0.5283527 0.2279779 -0.4649884 -0.12534499 -0.4349117 -0.47683007 0.5089811 -0.44485536 -0.2697593 0.30577153 -0.5549707 -0.8583139 -0.08878962 -0.26226917 -0.9585919 -0.2173378 -0.10149521 -0.13906334 1.0123497 0.29054135 -0.545685 0.5205912 -1.4273244 -1.2774715 -0.6114795 -0.7329426 -0.7695582 0.644092 -0.50159526 0.14518514 0.15768325 -0.2043823 -0.44282207 -0.10034178 -0.02469649 -0.7298407 -0.84449834 0.6545921 0.26702115 -0.46524334 -0.73501873 -0.38974577 -0.026987214 0.18020315 0.4493434 0.65881366 -0.9254557 -0.5698452 0.022274598 -0.2836833 0.545319 -0.77959216 -0.06939647 -1.3953224 0.8270163 -0.55449206 -0.12147108
而且 -1.0137818 0.49204797 0.031533778 -0.98010254 0.39680812 0.029840488 0.008049853 -0.0030567623 -0.16157705 -0.44507644 -0.5061045 0.6428933 -0.34430048 -0.49100795 0.22676796 -0.27669027 0.9565263 0.7847454 0.033286743 0.10473663 0.11546841 -0.0053499723 0.4335571 0.05910591 -0.6904412 0.26731777 0.8406834 0.15316069 0.19482008 -0.85417 -0.2120779 0.42524225 -0.07591654 -0.19058956 -0.5084316 -0.55610234 0.45000637 -0.5372293 -0.8825281 -0.18878366 -0.45009324 -0.3406526 0.7132581 -0.16366176 -0.06997459 -0.24013165 -0.3137344 -0.20497346 -0.54282707 0.0748251 -0.5872892 -0.079269744 0.2809942 -0.23387626 -0.5269869 -0.25627238 -0.09399174 -0.3877717 -0.15861337 0.13823032 -0.38313806 0.38153455 -0.3141841 -0.062341847 0.40575585 -0.67773837 0.026649566 -0.67274547 -0.20993404 -0.25987047 0.32762527 -0.8623778 -0.086964846 0.2237169 -0.25563276 0.13406187 -0.25063345 -0.12808545 -0.13482812 -0.3633947 0.28580633 0.30952752 0.19068134 -0.36106768 -0.15081505 -0.20683649 0.5417289 -0.25153026 -0.17554556 -0.4031667 -0.07181537 0.1425924 -0.023143524 0.24569549 -0.40829286 -0.09175292 -0.40134364 -0.24059021 -0.5664802 -0.2675097
尺码 -1.9827065 0.36534426 0.26558664 -1.310774 0.28826952 -0.12054633 -0.83478785 0.14518069 -1.4452066 -0.78023493 -0.8456285 0.17729323 0.087899685 -0.116308115 -0.7881812 -0.59659994 1.3876654 0.014823286 0.40240693 -0.47107986 -0.21315989 0.06443758 -0.19027571 0.9793902 -0.3153825 -0.60001934 1.1609421 0.5290513 0.2541996 -1.1862671 -0.10065729 1.2264864 0.030617865 -0.32334802 0.22044268 -0.9155787 0.72600806 0.10300106 -2.1109147 0.2976156 0.13409843 -0.095118165 0.86351395 0.0762982 -0.94760776 0.31183758 -0.49847496 0.4380097 -0.5754148 0.18526441 -1.1420174 0.3602916 0.43353578 0.510507 -0.07920799 -0.8050134 0.021798985 -0.35941342 -0.55871403 0.46994668 0.23342998 0.39272153 -0.8515459 0.73235977 0.627377 -0.9087385 0.24297169 -1.3406457 0.44204414 -0.89720565 0.19967282 -1.485024 0.3283099 -1.21653 0.16005272 -0.5698677 -0.40620658 0.5106751 -0.6889635 -0.10266613 1.0138066 0.24385367 0.141426 0.4420024 0.21256435 0.8140393 1.0698571 -0.38400617 0.17270505 -0.81527466 0.7087568 0.19811828 -0.36742726 0.00736472 -0.8713722 -0.2770019 0.18419445 -0.02218618 -1.0386754 -0.38131684
摸 -1.9957843 1.2885379 0.45072317 -1.8480638 0.008668971 0.4727463 0.28501812 0.07694433 0.041474596 -0.56025296 -0.031471264 0.71367705 -0.16561604 -0.25879854 0.82216436 -0.47672293 1.7920138 1.1642187 0.3916669 0.28987253 0.34021145 0.48057044 0.00934798 -0.18852858 -1.1770022 0.17813143 1.5389247 -0.18427907 1.2945033 -1.7630163 -0.59902346 1.5268462 -0.53044325 0.4326593 -0.64095503 -0.6336933 1.0468935 0.1386958 -1.4956199 -0.4389403 -0.45962808 0.49535578 1.0076193 0.420966 0.093245305 -0.1664864 -0.68716276 -0.63773745 -1.1288961 0.7600476 -1.41815 -0.15411551 0.20434453 -0.16692027 -0.5972637 -0.347691 -0.27752578 -1.1522007 0.063564606 -0.41241267 -0.44391057 0.42931405 -0.5409405 0.02151677 0.9519505 -1.8348784 -1.3429569 -1.2796265 -0.7187503 -0.66013896 0.7405947 -1.3802391 -0.050865166 -0.27014306 0.068080865 -0.058219112 -0.6711659 -0.10016735 -1.53411 -0.77119315 0.7031875 -0.015286783 0.23256935 -0.4999803 0.50226843 1.0226995 0.7913376 0.30708823 0.1604686 -0.79042166 0.10626042 0.3056788 -0.17464916 0.732613 -0.9983413 0.7001062 -1.1027354 0.00080222794 -1.3206778 0.12012978
购物 -0.6045315 -1.0907238 0.9540847 -1.2799804 -0.82438594 -0.24674681 -1.8341974 1.8746848 -1.1853923 -0.6437479 0.82473606 0.8011574 -0.2810007 -0.7150765 -0.36903524 0.2600442 -0.6557515 -0.01914041 0.6820076 -1.583178 -0.41589338 0.09999881 0.8256375 2.5360057 -0.046990287 0.06002583 -0.25393793 -1.077728 -0.7384425 0.28966904 -0.5782482 0.5956032 0.46838805 0.8388544 0.3664439 0.71943116 -0.01027091 0.5714836 -0.30725715 0.80569637 -1.3859829 -0.3230563 0.96284276 -1.0834424 -1.0224617 0.8270232 -1.1411998 0.3747622 -0.1123687 1.3239843 -1.0820086 0.5268055 -0.12216842 -0.62659216 -0.859259 -0.7903512 -0.6927907 -0.33444506 -0.043818053 0.30981266 0.47910368 0.1683738 -0.9017819 -1.0925701 0.7568376 0.7195092 0.54662323 -0.8472252 0.17461374 -1.2445487 -1.7282785 0.37606087 -0.7923139 1.9273303 -0.18547934 0.07979261 -0.52110827 1.4405873 -0.7615381 0.53044766 -1.8169545 -0.69456017 0.9366124 -1.3481774 0.638092 -0.60118735 -0.17877378 1.3207715 -0.32737708 0.19125369 -0.053065952 0.38704494 -0.99892086 -0.13540198 0.5005158 1.5675867 0.42070982 0.21387412 0.045491952 -0.024051556
来 0.019461192 -0.79634243 0.4548952 -0.3571499 -0.454685 -0.36594868 -0.02567656 1.2801368 0.3520227 0.076743126 0.7684624 0.78217876 0.122615784 0.28669196 -0.025429334 -0.53715503 -0.5920597 0.53227997 0.49346077 -1.1195074 -1.0843716 0.32365856 0.49667683 1.2989784 0.08383271 0.7245927 0.50113165 -0.04766219 -0.28499645 0.362165 -0.92259747 -0.5115786 0.29596114 0.9164474 0.3244217 0.3704955 -0.9660043 0.14213833 0.42100123 -0.34736115 -1.1910769 -0.20428318 0.88227516 -0.25506866 -0.43372375 0.5035485 -0.8895716 0.7153512 0.32194293 0.1687416 -0.10261426 0.010870338 -1.4069432 -0.09945727 -0.24272186 0.057729114 -0.22379678 -0.015596525 -0.2979649 -0.51699597 0.43599933 -0.8876732 -0.26508242 -0.71037173 -0.074286185 1.429575 -0.20112891 0.15923853 -0.42945856 0.17280205 -0.82058024 -0.106475264 -0.4772082 1.5057069 -0.17332636 -0.17613472 -0.35353467 0.5252679 0.31096375 -0.25555542 -1.0550619 -0.7181097 -0.63314503 -1.1269962 0.15811644 -1.3450099 -0.63236463 0.67881817 0.50851536 -0.7978328 -1.5108534 0.9660695 -0.41284424 -0.0023816458 0.14843851 -0.19445771 -0.41210243 0.256975 1.4831313 -0.47535768
下次 -0.18822029 -0.5471522 0.5740086 -0.21694419 -0.20943704 -0.16918376 -0.31004646 1.2639338 0.09253429 -0.9663286 0.6124993 0.50406325 0.0011515692 -0.42424718 -0.27570343 0.17685375 -0.66090417 0.058084115 0.8453885 -1.5652558 -1.4655823 -0.004335094 0.7741587 2.2841375 0.33921027 0.333635 0.82396334 0.20271611 -0.5407039 0.18014708 -0.2796362 0.2328776 0.571844 0.8429273 0.26704434 0.03548055 -0.655977 -0.11310487 -0.16631527 -0.03627209 -1.035818 -0.18865769 0.8821557 -0.26457155 -1.1265409 0.6425432 -0.96912175 0.69644403 0.45412397 0.18241125 -0.6807059 0.19430983 -1.0439643 0.21892227 -0.28756326 -0.38588285 -0.13912714 0.12525363 -0.09073284 -0.36880678 -0.26327482 -0.50333834 -0.14587091 -0.11901527 -0.11296644 1.4387579 0.7651218 -0.5349808 0.2562608 -0.008188958 -1.2221655 -0.09175596 -0.62064505 0.6800764 0.5575924 0.23085324 -0.6224153 0.732516 0.50933677 0.07864811 -0.95574796 -1.1076511 0.18338364 -1.3480291 0.6945533 -0.9762671 -0.29087707 0.85124403 0.34791574 0.20888968 -0.77462834 0.2653164 0.08526586 -0.5953136 0.085483946 -0.024130108 -0.13093334 -0.34983897 0.8455342 -0.45109385
评论 1.2034881 -0.78047717 0.15507469 -0.7678639 -0.8349075 -0.3058674 0.03191073 0.80504113 -1.3472148 0.51582634 -0.5547024 -0.33427376 0.75317085 0.77974397 0.6516796 -1.9161378 0.39099804 -0.28092733 -1.3236634 -0.6871755 2.4967654 1.0956602 0.98353726 0.879152 0.52595043 -0.34941706 -0.8323222 0.15715238 -0.5530708 0.345713 -1.0334252 0.31208053 -0.42910796 0.37324965 0.387726 -0.0024790238 -0.19370194 1.0807498 0.26588717 2.2273858 -0.59173733 -0.2167513 0.7469955 -0.14543349 -0.6693516 0.15224373 -0.11710289 2.00399 0.38031363 -0.38235223 -0.1882121 -1.0181372 -0.21453717 -0.62942284 1.1987569 0.018592792 -0.17850931 1.1666827 0.046970796 -0.87617266 0.04604903 0.24921213 -0.30590472 -0.9327113 -0.25677967 -0.5543846 -0.8530581 1.313154 -0.5238468 -1.3037153 -0.51808316 0.6048465 -0.022012785 1.1898609 -0.8856527 -1.3806112 0.53130937 0.2975418 0.1854289 -0.04090461 0.13224524 -0.00036081014 -1.7353253 -0.6722168 -1.3997842 -0.9965693 0.6905362 0.17932098 1.1496378 -0.94020593 0.54100204 1.70429 -0.68460757 -0.5280602 0.60303056 1.1926768 -0.51275545 0.28241944 1.425738 -0.09828072
卖家 -1.3632661 -0.08011773 0.2861713 -0.8679114 -0.28492925 -0.11888821 -1.6482937 0.8216733 -1.147022 -1.689594 -0.06287402 -0.58610773 -0.5535212 -1.0209723 0.097480774 0.15095055 0.011614415 -0.86328125 0.6404632 -1.0964073 -1.0547723 -0.24359867 1.0741851 2.2911513 0.013517827 0.23989779 0.39075318 0.28100154 -0.81954855 -0.40217775 -0.019780356 0.3606151 0.57002026 0.0956553 0.12572435 0.17996459 -0.3397937 -0.059413943 -0.7423011 0.45076486 -0.95151657 -0.98187846 0.70663303 -0.31585252 -1.2090142 0.37141103 -0.4441917 -0.06911449 0.3955279 0.26138955 -0.5505059 0.5009652 0.4714495 0.6431674 0.3627718 -1.5145776 0.18149476 -0.27661455 -0.28364536 0.73324037 -0.2667662 0.7401853 -0.97535837 0.5164509 0.3684034 0.38181427 2.0447621 -1.5138128 0.88699746 -0.4247434 -1.0981723 -0.66860616 -0.5791711 0.2965498 0.17220618 0.5263897 -0.1527193 0.63458866 0.26549694 -0.100167096 -0.79123527 -0.44618195 1.0088395 -0.4646245 -0.038132083 -0.38146955 0.124447405 -0.6498895 0.3208606 0.45123908 0.22968948 -0.10068089 -0.6221037 -0.1778451 -0.15945585 -0.13883963 1.0648197 -0.09507264 0.57090884 -0.36371714
精细 -1.2968372 0.32515728 0.20347191 -1.5550237 0.024085345 -0.27696913 -1.2062352 0.8981269 -1.5765623 -1.3259497 -1.1746037 1.0095459 -0.6037937 -0.41024384 -0.7599503 -0.6687332 1.9182327 0.82712203 -0.14346361 -0.46858063 0.9892863 0.45258024 0.77074397 1.8931705 0.2410444 -0.36004815 1.4331113 0.23312008 0.006168865 -1.1742026 -0.06914882 1.8134701 0.11459193 -0.14557037 -0.23179394 -0.69913393 1.0175996 0.28769055 -2.1712906 0.9017272 0.13119759 -0.48175135 1.056913 0.041063406 -0.64948434 0.31237254 -1.0365986 1.09782 -0.30205312 -0.25197914 -1.3778574 -0.20867793 0.8539927 -0.6633696 0.051400688 -1.0827103 -0.55051947 -0.15512115 0.23562942 0.54207 -0.042041037 0.5308121 -0.8822677 -0.034210537 0.6457762 -1.3869267 0.5794639 -0.9949314 0.20322977 -1.1321409 -0.1582803 -1.8162774 -0.15655921 -0.8841414 -0.5798056 0.33346373 -0.46461475 0.45931104 -0.1453302 0.02570222 0.8612194 0.28516448 -0.27695256 0.07976526 0.052456263 0.24500647 1.907048 -0.41906857 -0.012932674 -0.92441916 0.9377809 0.7741532 -0.7509598 0.40602955 -0.8502489 0.4394964 -0.85316706 -0.2387917 -1.0337178 -0.72065485
这 -0.09722416 -0.10572659 -0.16858791 -0.4751602 -0.42468333 -0.10324192 -0.05380489 0.23665532 -0.043985356 0.24211684 0.16040774 -0.038219843 -0.29858625 -0.0041696513 0.3848321 -0.35435128 -0.2968468 0.25971806 0.22095202 -0.031375695 -0.4866057 0.04591934 0.33432305 -0.3777887 -0.652433 0.79674363 0.037290256 -0.08026869 -0.21226998 -0.052304905 -0.7233486 -0.45232108 0.0018220596 0.11880672 -0.3396886 0.121643625 -0.38865307 -0.09363017 0.4712826 -0.29343057 -0.7936636 -0.42306975 0.46029726 -0.38676044 0.06954404 -0.13897362 -0.23519087 -0.26688498 0.09893356 0.1594845 0.1878348 0.03899282 -0.23149228 -0.107750475 -0.16442882 -0.22455212 -0.2306481 -0.24823257 -0.34451193 0.061116677 -0.07630262 0.36350265 -0.17287815 -0.48572832 0.04900715 0.2625446 -0.12129473 0.0016683175 -0.22199307 0.11772718 -0.059481084 0.14945908 -0.29727796 1.2751135 -0.42015257 -0.06209929 0.4160069 0.09402731 0.16806689 -0.31973365 -0.5369916 0.19650859 -0.22598511 -0.59790367 -0.36762428 -0.7749503 -0.44009116 -0.09006498 0.56741035 -0.62524694 -1.0529909 0.65473354 -0.7210319 0.5260951 0.06529093 -0.32191277 -0.3904295 0.81889683 1.0190008 -0.22333568
